~o
<STREAMINFO> 1 39
<VECSIZE> 39<NULLD><MFCC_E_D_A_Z><DIAGC>
~s "silst"
<NUMMIXES> 4
<MIXTURE> 1 4.228305e-01
<MEAN> 39
 -4.516180e+00 -2.098505e+00 1.832187e+00 4.202790e+00 2.641842e+00 5.114507e+00 3.489581e+00 4.586218e+00 3.778195e+00 3.878470e+00 3.310503e+00 1.884609e+00 2.098614e-01 -2.376486e+00 -8.383119e-01 -1.386901e+00 3.608584e-01 2.907788e-01 9.596952e-01 1.210968e+00 1.646678e+00 1.207060e+00 1.051817e+00 6.971712e-01 2.421038e-01 -7.387021e-02 4.868694e-01 7.073034e-01 9.174639e-02 -1.869386e-01 -1.686251e-01 -4.029108e-01 -3.813522e-01 -4.339837e-01 -3.235424e-01 -3.814479e-01 -3.088550e-01 -1.660784e-01 4.169606e-02
<VARIANCE> 39
 2.124741e+01 4.415483e+01 2.946563e+01 3.274850e+01 3.290432e+01 3.611659e+01 3.607254e+01 3.894122e+01 3.615506e+01 3.401348e+01 3.255729e+01 2.833523e+01 2.532907e-02 2.501797e+00 3.035189e+00 3.147260e+00 2.999441e+00 2.881236e+00 3.898808e+00 4.420923e+00 4.616287e+00 3.780135e+00 3.507780e+00 3.395360e+00 3.287571e+00 3.551217e-03 3.402410e-01 5.088135e-01 4.579099e-01 6.003886e-01 6.008034e-01 6.275840e-01 6.204860e-01 6.663979e-01 6.443133e-01 6.540790e-01 5.848278e-01 5.816916e-01 4.692173e-04
<GCONST> 1.045406e+02
<MIXTURE> 2 1.358648e-01
<MEAN> 39
 -4.149489e-01 1.276497e+00 4.980930e+00 4.519011e+00 3.272281e+00 2.551662e+00 1.188511e+00 -9.988037e-02 1.493245e+00 4.544172e-02 -3.143841e-01 9.655862e-01 3.071742e-01 2.376501e+00 2.329361e+00 -3.810208e-02 -1.065601e+00 -1.326406e+00 -1.453270e+00 -1.546861e+00 -1.183943e+00 -1.045330e+00 -5.876614e-01 -5.386662e-01 -5.217890e-01 1.753089e-01 3.106792e-02 -4.406876e-02 -4.888707e-01 -6.208607e-01 -3.430333e-01 -2.008472e-01 -1.496961e-01 1.456672e-01 8.115529e-02 1.420302e-01 1.686852e-01 7.832369e-02 7.469774e-03
<VARIANCE> 39
 2.590459e+01 4.587700e+01 3.780895e+01 2.776043e+01 3.613099e+01 3.976201e+01 4.710537e+01 4.746973e+01 3.654612e+01 3.838745e+01 4.245555e+01 2.884581e+01 4.712010e-02 2.540361e+00 3.099178e+00 4.804729e+00 3.626216e+00 3.806396e+00 3.796627e+00 4.608078e+00 3.997439e+00 4.140163e+00 3.540594e+00 4.125402e+00 3.267156e+00 3.955333e-03 5.444202e-01 4.627835e-01 5.100011e-01 5.116655e-01 5.482060e-01 6.434938e-01 7.552503e-01 6.939996e-01 6.828182e-01 6.668760e-01 7.281976e-01 5.248606e-01 9.141008e-04
<GCONST> 1.091009e+02
<MIXTURE> 3 3.500482e-01
<MEAN> 39
 -2.001845e+00 -7.580607e-01 2.301385e+00 2.692072e+00 3.194573e+00 3.786489e+00 1.683946e+00 2.994498e+00 3.408493e+00 1.424433e+00 1.632502e+00 8.393512e-01 -2.940405e-03 -1.545306e-01 1.922843e-01 1.271031e-01 1.170699e-01 -6.651329e-03 3.673676e-02 3.307461e-04 4.751978e-02 -2.501251e-02 -8.029004e-02 -8.060081e-02 -8.775841e-02 -7.985041e-03 1.181654e-01 1.108869e-01 5.640620e-02 7.749076e-02 1.885768e-03 8.401130e-03 -1.466507e-02 -2.712391e-02 -3.382893e-02 3.961520e-03 2.905905e-03 2.972332e-02 1.626007e-02
<VARIANCE> 39
 1.035652e+01 3.930968e+01 2.219665e+01 2.512406e+01 2.587269e+01 2.625382e+01 2.598960e+01 3.185482e+01 2.332497e+01 2.599380e+01 2.531943e+01 1.931667e+01 1.692715e-02 6.124608e-01 9.383544e-01 9.274506e-01 1.255613e+00 1.505714e+00 1.612443e+00 1.642237e+00 1.872151e+00 1.881420e+00 1.846679e+00 1.634678e+00 1.490950e+00 1.439809e-03 1.572515e-01 2.293304e-01 2.097509e-01 2.464958e-01 3.191722e-01 3.408835e-01 3.499125e-01 4.032193e-01 4.149803e-01 3.719153e-01 3.276695e-01 3.173198e-01 4.789759e-04
<GCONST> 8.073524e+01
<MIXTURE> 4 9.125470e-02
<MEAN> 39
 4.302441e+00 5.618452e+00 1.798744e+00 -2.434276e+00 -2.171116e+00 -7.543312e-01 -9.745032e-01 3.936713e+00 5.337042e+00 6.938091e+00 6.889597e+00 5.773439e+00 5.115355e-01 2.075435e+00 1.322204e+00 -2.269367e+00 -2.711596e+00 -2.356740e+00 -2.804067e+00 -1.675101e+00 -1.719768e+00 -1.285796e+00 -5.205110e-01 -2.136503e-01 4.751787e-01 1.764180e-01 -6.509864e-01 -3.777454e-01 9.016360e-02 3.900295e-01 5.711650e-01 5.021222e-01 3.496901e-01 5.154754e-02 -3.720396e-01 -6.457174e-01 -7.239900e-01 -5.990985e-01 -2.135928e-02
<VARIANCE> 39
 3.291374e+01 5.235516e+01 5.642091e+01 4.395718e+01 3.120953e+01 4.147497e+01 5.036948e+01 4.425299e+01 5.004144e+01 3.593057e+01 4.575820e+01 4.111658e+01 3.431626e-02 3.824369e+00 4.619360e+00 4.520433e+00 3.414005e+00 3.756985e+00 4.498367e+00 4.775874e+00 3.770786e+00 4.386052e+00 5.078575e+00 5.299876e+00 5.014757e+00 5.199795e-03 3.282448e-01 3.744467e-01 6.679323e-01 6.696109e-01 4.812751e-01 5.638596e-01 8.252785e-01 7.471440e-01 7.571181e-01 6.272228e-01 6.791657e-01 7.556080e-01 4.382910e-04
<GCONST> 1.120999e+02
~h "#i"
<BEGINHMM>
<NUMSTATES> 15
<STATE> 2
<NUMMIXES> 4
<MIXTURE> 1 9.599147e-02
<MEAN> 39
 -2.451578e+00 9.195719e+00 -6.788486e+00 -4.261419e+00 -6.072655e+00 -5.173886e+00 2.039311e+00 1.186593e+00 7.353533e+00 8.866944e+00 8.913524e+00 8.728083e+00 8.535839e-01 -8.582572e-01 -1.053561e-01 -2.588769e-01 -1.212260e-01 -5.807179e-01 -5.190507e-01 -9.995800e-01 -8.509975e-01 4.936639e-01 1.342460e+00 1.924012e+00 1.843938e+00 3.432216e-02 2.982561e-01 -3.080107e-02 3.313303e-01 2.790843e-01 1.870557e-01 2.790033e-01 1.393257e-01 2.122566e-01 -2.397414e-01 -3.955512e-01 -5.671908e-01 -5.501619e-01 -1.348565e-02
<VARIANCE> 39
 2.448911e+01 3.253104e+01 2.621560e+01 1.864298e+01 2.540934e+01 2.165772e+01 2.943588e+01 4.230259e+01 8.605667e+01 8.125386e+01 5.614954e+01 9.983125e+01 1.088073e-02 9.163373e-01 1.212285e+00 1.126158e+00 1.296389e+00 1.502394e+00 1.852705e+00 2.745406e+00 3.031279e+00 5.558854e+00 6.514714e+00 5.816130e+00 6.441104e+00 5.850846e-04 1.862140e-01 2.785635e-01 2.962688e-01 2.818631e-01 3.725703e-01 4.178189e-01 4.875057e-01 5.440497e-01 8.008380e-01 1.019667e+00 8.140722e-01 1.047005e+00 2.915242e-04
<GCONST> 9.721375e+01
<MIXTURE> 2 3.164335e-01
<MEAN> 39
 -1.159878e+00 1.191153e+01 -4.298844e-01 -4.755002e+00 -3.484422e+00 -7.298327e+00 -3.951761e+00 1.559053e-01 2.027116e-01 -1.898373e+00 1.059751e+00 -1.342348e+00 7.810987e-01 -2.565328e-01 1.701344e+00 -7.457516e-01 1.504493e+00 -8.738621e-01 -2.616673e-01 -8.663936e-01 -6.562122e-01 -7.857704e-01 -7.377386e-01 1.478806e-01 -1.692392e-01 3.140344e-03 1.772868e-01 -5.744432e-01 1.891814e-01 3.883339e-03 -2.639971e-01 5.748727e-01 9.267306e-02 7.403985e-02 -1.223565e-01 1.323976e-01 -2.432263e-01 -2.311271e-02 3.458081e-03
<VARIANCE> 39
 1.024991e+01 2.635298e+01 2.367823e+01 3.287336e+01 2.261185e+01 3.062477e+01 4.783810e+01 3.400093e+01 3.649123e+01 4.261200e+01 4.376130e+01 3.749096e+01 1.068677e-02 6.409327e-01 1.465225e+00 1.477817e+00 2.084498e+00 1.974974e+00 3.546690e+00 2.472023e+00 2.791531e+00 3.151159e+00 4.022011e+00 3.588505e+00 3.610875e+00 4.359971e-04 1.059204e-01 2.877706e-01 2.198809e-01 4.314765e-01 4.836954e-01 5.606857e-01 4.368039e-01 4.801210e-01 4.967959e-01 5.942050e-01 5.718515e-01 5.344380e-01 4.132616e-05
<GCONST> 8.917261e+01
<MIXTURE> 3 3.731535e-01
<MEAN> 39
 2.005857e+00 1.281557e+01 -1.957297e+00 -1.214141e+00 -4.023050e+00 -3.668827e+00 -1.203443e+00 2.084926e+00 -8.382999e-01 1.386917e+00 -9.372553e-01 1.381001e+00 6.943844e-01 3.605222e-02 8.700261e-01 -1.123924e-01 2.090777e-01 -5.526634e-01 -1.454470e-01 -6.365221e-01 -2.298964e-01 -4.082733e-01 -1.409349e-01 -4.522265e-01 2.511032e-01 1.771455e-02 -1.632568e-01 -2.401636e-01 -6.293339e-02 -2.320448e-01 -3.166216e-02 -1.897878e-01 -1.572594e-01 -2.108032e-01 -1.077203e-01 -2.380452e-01 -6.506620e-02 -1.273890e-01 7.915352e-03
<VARIANCE> 39
 1.159998e+01 2.632717e+01 2.140381e+01 2.442376e+01 1.911983e+01 1.802692e+01 5.037370e+01 2.742191e+01 3.331534e+01 3.609187e+01 4.700705e+01 4.936656e+01 1.445049e-02 6.229579e-01 1.305856e+00 1.024166e+00 1.331528e+00 1.312896e+00 1.857862e+00 2.042901e+00 1.999253e+00 2.061737e+00 2.107354e+00 2.766127e+00 2.478060e+00 8.782206e-04 1.004347e-01 2.203730e-01 1.890610e-01 2.691250e-01 2.648822e-01 3.314015e-01 3.855209e-01 3.213064e-01 3.857448e-01 4.259271e-01 5.065791e-01 5.578505e-01 9.422611e-05
<GCONST> 8.244488e+01
<MIXTURE> 4 2.144197e-01
<MEAN> 39
 6.254883e-01 1.157207e+01 -2.096738e+00 -3.055391e+00 -6.410095e+00 -4.217737e+00 -3.391285e+00 1.583543e+00 -1.264584e+00 -8.450757e-01 -7.119551e-02 2.368681e-01 7.871886e-01 -1.011223e+00 6.364721e-01 -5.275344e-01 -4.880954e-01 -5.261712e-01 -5.778005e-01 -9.898301e-01 -8.030051e-01 -1.092374e+00 -1.074912e+00 -3.574682e-01 -2.821135e-01 6.513307e-02 -2.770683e-01 -9.377355e-01 3.192492e-01 5.325121e-01 6.658047e-01 5.826889e-01 3.580227e-01 1.010751e-01 3.274988e-01 2.568406e-01 1.983113e-01 1.685645e-01 -3.729590e-02
<VARIANCE> 39
 1.268666e+01 4.981439e+01 1.883028e+01 1.696481e+01 2.125718e+01 2.924058e+01 4.664296e+01 2.854205e+01 2.430855e+01 3.332195e+01 3.266495e+01 4.868763e+01 1.014330e-02 8.577160e-01 1.685639e+00 1.026104e+00 1.642815e+00 1.606864e+00 1.649243e+00 1.811034e+00 2.839095e+00 2.468556e+00 2.083039e+00 5.059020e+00 4.540928e+00 6.610059e-04 1.757430e-01 3.714341e-01 3.035791e-01 2.479200e-01 3.216940e-01 4.295254e-01 5.177368e-01 4.138513e-01 3.145234e-01 3.597876e-01 4.917255e-01 6.383166e-01 3.397003e-04
<GCONST> 8.778870e+01
<STATE> 3
<NUMMIXES> 4
<MIXTURE> 1 2.792043e-01
<MEAN> 39
 -1.869295e+00 1.069298e+01 -5.786922e+00 -3.414461e+00 -7.999240e+00 -8.187216e+00 -4.877630e+00 -4.034290e+00 -4.686115e+00 -2.537229e+00 -4.316183e+00 1.478313e+00 8.567527e-01 -2.591259e-01 4.613929e-03 -6.421884e-03 4.227538e-01 -8.198176e-02 -1.295141e-02 -4.148184e-01 -6.388057e-01 -4.708223e-01 -4.240538e-01 -2.033341e-01 2.398483e-01 1.860591e-02 2.789793e-01 1.412547e-01 3.885615e-01 2.728019e-01 4.479157e-01 4.269659e-01 4.692270e-01 5.961842e-01 5.722817e-01 4.655273e-01 4.206807e-01 1.989587e-01 -6.548653e-03
<VARIANCE> 39
 1.363991e+01 3.097867e+01 1.692859e+01 1.809219e+01 2.014475e+01 2.471100e+01 3.038749e+01 2.625097e+01 3.589552e+01 3.148347e+01 5.753650e+01 6.492649e+01 9.288860e-03 5.326510e-01 6.308481e-01 8.367437e-01 1.129795e+00 1.302179e+00 1.216528e+00 1.615100e+00 1.626918e+00 1.441423e+00 1.898514e+00 2.628059e+00 2.983083e+00 2.549717e-04 9.036063e-02 1.219967e-01 1.318539e-01 1.877473e-01 1.942258e-01 2.463800e-01 2.499854e-01 2.487130e-01 2.832056e-01 3.334762e-01 4.518163e-01 4.693327e-01 1.045093e-04
<GCONST> 7.488683e+01
<MIXTURE> 2 2.596612e-01
<MEAN> 39
 -1.476296e+00 1.503800e+01 9.172112e-01 -2.256252e+00 -6.256423e+00 -4.241181e+00 -1.042577e+01 4.769564e-01 -1.242297e+00 -3.411322e+00 4.374874e+00 -3.534846e+00 8.304884e-01 -2.753271e-01 5.579228e-01 -1.416848e-01 2.279461e-01 -1.947456e-01 6.635321e-02 -2.650751e-01 -7.592859e-02 -2.891445e-01 -3.371060e-01 9.074869e-02 -3.203636e-01 1.411442e-02 9.832162e-02 -2.217632e-01 3.967333e-02 -1.173233e-01 1.023533e-01 1.198864e-02 1.840634e-01 1.996911e-04 7.760917e-02 9.905525e-02 -1.207469e-01 1.334329e-01 -2.542039e-03
<VARIANCE> 39
 8.424579e+00 3.038636e+01 1.410379e+01 1.780030e+01 1.915419e+01 2.462050e+01 2.672442e+01 2.714334e+01 3.223015e+01 4.164802e+01 2.155047e+01 1.731766e+01 5.322967e-03 3.914576e-01 6.097971e-01 5.826908e-01 8.676912e-01 7.425761e-01 8.598869e-01 1.085845e+00 1.180624e+00 1.302897e+00 1.082963e+00 1.059825e+00 1.071184e+00 2.119653e-04 6.194618e-02 9.719842e-02 1.080868e-01 1.652662e-01 1.538275e-01 1.671063e-01 1.682196e-01 2.093228e-01 2.144395e-01 2.072938e-01 1.561417e-01 1.663677e-01 2.783609e-05
<GCONST> 5.967875e+01
<MIXTURE> 3 2.594663e-01
<MEAN> 39
 -1.480797e+00 1.503034e+01 9.144163e-01 -2.248433e+00 -6.274708e+00 -4.210083e+00 -1.042005e+01 4.795699e-01 -1.240860e+00 -3.423752e+00 4.365074e+00 -3.534085e+00 8.305389e-01 -2.766820e-01 5.581558e-01 -1.414463e-01 2.250205e-01 -1.924542e-01 6.771518e-02 -2.632018e-01 -7.328290e-02 -2.876381e-01 -3.371738e-01 9.248881e-02 -3.176282e-01 1.420329e-02 9.951290e-02 -2.226157e-01 3.981042e-02 -1.159342e-01 1.033167e-01 1.034143e-02 1.850790e-01 -8.038066e-04 7.811833e-02 1.001047e-01 -1.210851e-01 1.326600e-01 -2.584470e-03
<VARIANCE> 39
 8.470457e+00 3.053300e+01 1.416307e+01 1.779796e+01 1.919663e+01 2.474633e+01 2.690686e+01 2.719880e+01 3.237412e+01 4.191417e+01 2.158461e+01 1.738566e+01 5.324524e-03 3.955784e-01 6.130091e-01 5.906969e-01 8.726762e-01 7.483882e-01 8.636031e-01 1.089177e+00 1.189629e+00 1.309035e+00 1.092143e+00 1.062179e+00 1.072931e+00 2.127599e-04 6.259677e-02 9.797725e-02 1.087864e-01 1.663057e-01 1.550014e-01 1.681175e-01 1.689839e-01 2.107436e-01 2.152214e-01 2.080963e-01 1.565174e-01 1.666460e-01 2.816082e-05
<GCONST> 5.988371e+01
<MIXTURE> 4 2.016668e-01
<MEAN> 39
 3.595592e-01 1.258729e+01 -3.580133e+00 -1.316290e+00 -5.590330e+00 -5.433083e+00 -2.952319e-01 6.996015e-02 -1.813421e+00 5.802513e-01 -4.330740e+00 4.610909e+00 8.208461e-01 -8.679903e-01 -6.016818e-01 -8.856872e-01 -3.893788e-01 -9.085285e-01 -1.162783e+00 -1.564256e+00 -1.475557e+00 -1.337539e+00 -1.463212e+00 -1.286540e+00 -6.705048e-01 3.114642e-02 2.309170e-02 -1.649222e-01 6.259716e-02 1.721312e-02 8.261792e-02 1.966216e-03 -6.020428e-03 -1.163048e-02 5.153376e-02 4.782212e-02 1.499724e-01 -4.667420e-02 -5.764393e-03
<VARIANCE> 39
 1.597484e+01 2.839187e+01 1.616583e+01 1.471061e+01 1.195626e+01 1.394514e+01 1.981910e+01 2.626468e+01 2.119941e+01 2.396409e+01 1.937772e+01 1.892164e+01 7.542343e-03 4.703059e-01 5.224623e-01 6.501439e-01 8.852664e-01 1.010231e+00 1.077904e+00 1.039326e+00 1.268088e+00 1.152331e+00 1.466865e+00 1.842045e+00 2.114381e+00 2.898914e-04 1.139873e-01 1.078298e-01 1.124377e-01 1.418804e-01 1.683874e-01 1.793189e-01 2.383304e-01 2.337417e-01 2.537583e-01 2.388052e-01 2.822360e-01 2.453693e-01 4.300468e-05
<GCONST> 6.357623e+01
<STATE> 4
<NUMMIXES> 4
<MIXTURE> 1 3.570586e-01
<MEAN> 39
 -1.097955e+00 1.264968e+01 -3.172876e+00 -1.503772e+00 -6.043849e+00 -5.727009e+00 -4.289433e+00 -1.560112e+00 -2.574914e+00 -1.673986e+00 -1.312604e+00 2.146480e+00 8.750504e-01 1.432290e-01 3.702415e-01 2.548229e-01 5.139211e-01 2.883545e-01 2.236014e-01 1.993045e-01 2.140838e-01 3.272391e-01 2.154369e-01 2.430822e-01 3.545947e-01 1.061564e-02 7.143847e-02 -5.926983e-02 2.194112e-02 -7.141408e-02 7.414436e-02 8.266210e-03 9.255178e-02 1.251009e-01 1.419846e-01 1.186593e-01 6.698576e-02 -6.104051e-02 -3.511755e-03
<VARIANCE> 39
 1.173575e+01 3.500436e+01 2.174334e+01 1.751289e+01 2.180780e+01 2.806108e+01 3.432097e+01 2.892228e+01 3.289675e+01 3.470879e+01 5.242714e+01 6.103989e+01 6.817321e-03 3.076615e-01 5.675253e-01 7.608559e-01 7.736486e-01 1.003628e+00 1.166755e+00 1.345567e+00 1.315812e+00 1.159714e+00 1.267536e+00 1.406667e+00 1.730165e+00 9.094820e-05 5.448656e-02 8.632620e-02 1.362629e-01 1.438608e-01 1.838448e-01 1.997747e-01 2.159821e-01 2.476600e-01 2.487975e-01 2.143819e-01 2.819679e-01 2.498464e-01 2.298232e-05
<GCONST> 6.571227e+01
<MIXTURE> 2 2.460162e-01
<MEAN> 39
 -2.235967e+00 1.438534e+01 -8.764830e-01 -2.307402e+00 -4.346841e+00 -5.376776e+00 -6.894154e+00 -1.121230e-01 -1.543895e+00 -2.772630e+00 2.641977e+00 -5.090369e-01 8.770083e-01 4.678417e-03 3.876332e-02 -2.991349e-02 -6.313954e-02 8.160013e-02 -2.611753e-02 7.678583e-02 -2.668578e-02 4.693312e-02 -1.353189e-02 -6.257161e-05 1.319836e-02 5.751045e-04 1.462870e-02 -2.580364e-02 1.005398e-02 -2.629128e-02 5.162437e-03 -1.392354e-02 1.080401e-02 1.177245e-02 1.976723e-02 2.364095e-02 -1.265031e-03 5.192668e-03 -1.034902e-03
<VARIANCE> 39
 7.514078e+00 3.557901e+01 1.209973e+01 8.809750e+00 1.197206e+01 1.757861e+01 2.799236e+01 1.600421e+01 2.784893e+01 3.534804e+01 3.511372e+01 3.234231e+01 7.209389e-03 5.535847e-02 8.534203e-02 1.091034e-01 1.531357e-01 1.597850e-01 1.846887e-01 2.010971e-01 2.232058e-01 2.243374e-01 2.257668e-01 1.740783e-01 2.074664e-01 3.754082e-05 8.332496e-03 1.627500e-02 1.779689e-02 2.465224e-02 2.735360e-02 3.184213e-02 3.151252e-02 3.598010e-02 4.040462e-02 3.592899e-02 3.044941e-02 3.975981e-02 3.730628e-06
<GCONST> 1.360002e+01
<MIXTURE> 3 2.462665e-01
<MEAN> 39
 -2.280261e+00 1.494166e+01 -5.720778e-01 -2.314425e+00 -4.661046e+00 -5.166971e+00 -7.597283e+00 -1.724260e-01 -1.492043e+00 -3.486054e+00 2.973156e+00 -1.308497e+00 8.717227e-01 -6.166313e-03 4.906991e-02 -3.640550e-02 -6.228127e-02 8.866836e-02 -3.881199e-02 7.189082e-02 -2.459257e-02 4.675490e-02 -1.358253e-02 -8.444236e-03 9.571649e-03 9.162776e-04 1.711138e-02 -2.924048e-02 1.031430e-02 -2.632353e-02 7.209996e-03 -1.487705e-02 1.690988e-02 1.275501e-02 2.139505e-02 3.092685e-02 -9.160610e-04 1.424321e-02 -1.109312e-03
<VARIANCE> 39
 7.482497e+00 3.498840e+01 1.224413e+01 9.251336e+00 1.254807e+01 1.772602e+01 2.669852e+01 1.723266e+01 2.500724e+01 3.437461e+01 3.215344e+01 2.815554e+01 7.193038e-03 6.025751e-02 8.961426e-02 1.147379e-01 1.617093e-01 1.712810e-01 2.005122e-01 2.133196e-01 2.412243e-01 2.504680e-01 2.415052e-01 1.909908e-01 2.251319e-01 3.754082e-05 9.440563e-03 1.757486e-02 1.923873e-02 2.678813e-02 2.977506e-02 3.601844e-02 3.357254e-02 3.903306e-02 4.609155e-02 3.877731e-02 3.312203e-02 4.255106e-02 3.730628e-06
<GCONST> 1.531156e+01
<MIXTURE> 4 1.506563e-01
<MEAN> 39
 -1.384988e+00 1.137557e+01 -3.261083e+00 -9.353177e-02 -4.520347e+00 -5.578616e+00 -4.067438e+00 -1.153370e+00 -4.040387e+00 -3.518075e-01 -1.723362e+00 7.030348e+00 9.078287e-01 -5.706681e-02 -1.188347e-01 -1.674009e-01 5.117743e-02 -1.123398e-01 -2.293775e-01 -2.221210e-01 -1.937525e-01 -5.381259e-02 -9.959520e-02 -1.233402e-01 -1.024437e-01 4.835482e-03 -4.423328e-02 -6.110223e-02 -6.073304e-02 -1.410216e-01 -1.089265e-01 -6.099665e-02 -1.358834e-02 -3.168187e-02 9.239439e-03 -2.490311e-02 -2.787242e-02 -1.629542e-01 -2.462002e-03
<VARIANCE> 39
 1.191051e+01 1.740316e+01 8.712015e+00 1.470486e+01 1.235946e+01 2.547204e+01 2.354702e+01 3.074778e+01 3.216229e+01 2.404748e+01 4.684260e+01 4.244977e+01 4.565662e-03 1.024272e-01 2.101881e-01 2.442352e-01 3.359028e-01 3.783575e-01 3.751225e-01 3.005508e-01 4.728960e-01 3.767767e-01 3.407395e-01 3.948914e-01 5.260456e-01 3.754082e-05 1.892202e-02 3.085646e-02 4.387481e-02 5.767244e-02 6.985995e-02 5.853583e-02 6.731413e-02 8.682364e-02 9.011129e-02 7.140996e-02 9.074806e-02 7.952111e-02 4.130537e-06
<GCONST> 3.255966e+01
<STATE> 5
<NUMMIXES> 4
<MIXTURE> 1 2.311309e-01
<MEAN> 39
 -1.242501e+00 1.169785e+01 -6.667732e+00 -2.904559e+00 -9.305071e+00 -8.961392e+00 -5.406240e+00 -4.442838e+00 -4.714365e+00 -4.228395e+00 -6.351520e+00 6.977280e-01 8.823667e-01 9.768809e-02 1.763955e-01 9.469936e-02 1.995693e-01 2.152290e-01 2.962922e-01 2.792235e-01 2.039812e-01 3.080246e-01 1.564934e-01 2.299704e-01 6.992143e-02 3.166110e-04 1.273939e-01 1.639161e-01 2.759622e-01 2.332114e-01 3.813685e-01 3.225000e-01 3.801336e-01 3.282613e-01 3.084680e-01 2.909666e-01 2.584462e-01 1.666347e-01 -1.377576e-03
<VARIANCE> 39
 1.635883e+01 2.572042e+01 1.591015e+01 1.609821e+01 1.581941e+01 2.356709e+01 1.905381e+01 2.561925e+01 2.150336e+01 3.173514e+01 3.300842e+01 4.279277e+01 6.885074e-03 1.552932e-01 2.826411e-01 3.587259e-01 5.321240e-01 5.742993e-01 6.700176e-01 7.064211e-01 6.822815e-01 6.171366e-01 7.118520e-01 6.101958e-01 6.230070e-01 3.754082e-05 2.229893e-02 4.189515e-02 5.449930e-02 8.396370e-02 8.941166e-02 9.861058e-02 9.942975e-02 1.076159e-01 1.144091e-01 1.123226e-01 1.293352e-01 1.231755e-01 5.264649e-06
<GCONST> 4.345053e+01
<MIXTURE> 2 2.918437e-01
<MEAN> 39
 2.980953e-03 1.482931e+01 -2.085876e+00 -1.543486e-01 -5.370680e+00 -4.825798e+00 -5.120694e+00 4.008385e-02 -1.369049e+00 -1.428059e+00 -4.849128e-01 -8.940962e-02 8.750381e-01 1.323965e-01 1.378926e-01 1.424723e-01 1.807298e-01 2.313257e-01 1.244532e-01 2.580640e-01 1.397727e-01 2.557995e-01 2.568104e-01 1.736216e-01 5.367243e-02 1.794013e-04 -5.384846e-02 -1.375078e-01 -9.135675e-02 -1.669112e-01 -7.817606e-02 -1.640279e-01 -7.606952e-02 -1.424217e-01 -7.229416e-02 -8.467422e-02 -8.221719e-02 -9.920093e-02 -1.243037e-03
<VARIANCE> 39
 1.385860e+01 2.592124e+01 1.700716e+01 1.680638e+01 1.930185e+01 2.331441e+01 3.830671e+01 2.617262e+01 2.691124e+01 3.537162e+01 4.816085e+01 4.133548e+01 5.595369e-03 1.224787e-01 2.696162e-01 3.508969e-01 4.535206e-01 5.481963e-01 6.680952e-01 7.030591e-01 7.128004e-01 6.746859e-01 6.976334e-01 6.880303e-01 7.101398e-01 4.120096e-05 2.550223e-02 4.621911e-02 8.336239e-02 8.692309e-02 1.118484e-01 1.319130e-01 1.408805e-01 1.421064e-01 1.445884e-01 1.524779e-01 1.297394e-01 1.433663e-01 5.358551e-06
<GCONST> 4.726049e+01
<MIXTURE> 3 2.912041e-01
<MEAN> 39
 -1.794652e-02 1.494608e+01 -2.041689e+00 -1.457709e-01 -5.395442e+00 -4.831960e+00 -5.404822e+00 5.236517e-02 -1.394010e+00 -1.588616e+00 -5.003091e-01 -3.654574e-01 8.737780e-01 1.305486e-01 1.260422e-01 1.353694e-01 1.707319e-01 2.223461e-01 1.096529e-01 2.406247e-01 1.351035e-01 2.527483e-01 2.379493e-01 1.511438e-01 3.925537e-02 -2.518067e-04 -5.021210e-02 -1.256725e-01 -8.003160e-02 -1.538811e-01 -6.807789e-02 -1.529373e-01 -6.305933e-02 -1.286632e-01 -6.914122e-02 -7.293511e-02 -7.161673e-02 -8.584313e-02 -1.124633e-03
<VARIANCE> 39
 1.379463e+01 2.574281e+01 1.698499e+01 1.622375e+01 1.938466e+01 2.327484e+01 3.853316e+01 2.627258e+01 2.607384e+01 3.423870e+01 4.746990e+01 3.917742e+01 5.565465e-03 1.163116e-01 2.525304e-01 3.328513e-01 4.269187e-01 5.101746e-01 6.473553e-01 6.715324e-01 6.929880e-01 6.344051e-01 6.594563e-01 6.281312e-01 6.339367e-01 3.754082e-05 2.329953e-02 4.289124e-02 7.308207e-02 7.970610e-02 1.046068e-01 1.201317e-01 1.327372e-01 1.285948e-01 1.349036e-01 1.338173e-01 1.249932e-01 1.270057e-01 4.067565e-06
<GCONST> 4.492651e+01
<MIXTURE> 4 1.858176e-01
<MEAN> 39
 -2.539484e-01 1.341772e+01 -4.619691e+00 -6.596226e-01 -6.952176e+00 -7.419432e+00 -2.840523e+00 -2.132585e+00 -2.995047e+00 -2.578427e+00 -5.859744e+00 1.453734e+00 8.779356e-01 -2.341953e-01 -4.778611e-01 -6.775094e-01 -6.527648e-01 -7.313330e-01 -7.812821e-01 -7.126349e-01 -7.285936e-01 -6.137190e-01 -6.223644e-01 -5.976188e-01 -6.422476e-01 1.326563e-03 -1.281179e-02 -1.611564e-02 -2.902742e-02 -7.616065e-02 3.996090e-03 1.429425e-02 -3.872277e-03 1.063502e-03 2.029607e-02 -4.691054e-02 9.262515e-03 -1.133778e-02 -1.505131e-03
<VARIANCE> 39
 1.387343e+01 2.668892e+01 1.207764e+01 1.429734e+01 1.569733e+01 2.281764e+01 1.896550e+01 2.526500e+01 2.002291e+01 2.672423e+01 2.040340e+01 2.988070e+01 6.181795e-03 9.743667e-02 1.835241e-01 2.464854e-01 3.506352e-01 4.420708e-01 4.601345e-01 4.781473e-01 4.739555e-01 5.381110e-01 5.692566e-01 6.532606e-01 5.790371e-01 4.988145e-05 2.061434e-02 5.181249e-02 6.665336e-02 7.942482e-02 9.893989e-02 1.223339e-01 1.376401e-01 1.434646e-01 1.061985e-01 1.278716e-01 9.321578e-02 1.094907e-01 5.356225e-06
<GCONST> 3.935130e+01
<STATE> 6
<NUMMIXES> 4
<MIXTURE> 1 4.101914e-01
<MEAN> 39
 -1.233940e+00 1.094837e+00 -1.813859e+00 -1.047435e+00 -1.417132e+00 -1.599461e+00 -1.650280e+00 -1.766400e+00 -1.652880e+00 -1.754901e+00 -1.522111e+00 -4.499691e-01 9.650564e-01 1.630498e-01 3.957614e-02 7.564555e-02 1.144139e-01 1.007895e-01 3.270203e-02 1.341663e-01 8.740146e-02 8.400346e-02 3.500076e-02 6.664379e-02 -2.639898e-03 -2.656257e-03 4.380761e-02 6.419188e-02 7.616126e-02 4.338274e-02 5.756063e-02 5.798087e-02 7.026743e-02 9.213901e-02 7.286032e-02 8.970200e-02 5.161414e-02 4.511099e-02 -8.221847e-04
<VARIANCE> 39
 3.777512e+00 4.346828e+00 7.137253e+00 7.493747e+00 8.035337e+00 8.041063e+00 1.289898e+01 9.898063e+00 8.037390e+00 8.835851e+00 1.470420e+01 1.057381e+01 1.008628e-03 1.537746e-01 2.782973e-01 4.358225e-01 4.811402e-01 7.055687e-01 5.955039e-01 7.586256e-01 7.084342e-01 6.574203e-01 5.767620e-01 5.606247e-01 5.217532e-01 3.754082e-05 2.035439e-02 4.459144e-02 6.895083e-02 7.131065e-02 1.118602e-01 9.251584e-02 1.129226e-01 1.104873e-01 9.347664e-02 8.744857e-02 1.034622e-01 8.456001e-02 3.730628e-06
<GCONST> 2.797363e+01
<MIXTURE> 2 2.228791e-01
<MEAN> 39
 -2.660451e-01 1.382114e+01 -2.598570e+00 -1.181896e+00 -5.474408e+00 -5.718284e+00 -5.907281e+00 -1.189918e+00 -1.512601e+00 -2.107239e+00 2.196485e-01 -4.404839e-01 8.775846e-01 3.830742e-02 -1.014579e-01 1.535946e-02 -1.377459e-01 2.848197e-01 -1.360183e-01 1.555100e-01 -8.728230e-02 3.312546e-01 1.178301e-01 1.155925e-01 -1.012649e-01 -2.135757e-03 -7.743073e-03 -1.120787e-01 5.279122e-02 -1.843613e-01 1.198307e-01 -7.891549e-02 2.769746e-02 -1.981476e-02 5.787575e-02 -1.830393e-02 -2.406186e-02 -1.301630e-02 -1.961436e-03
<VARIANCE> 39
 1.491574e+01 3.631183e+01 2.535900e+01 1.982809e+01 2.092914e+01 2.528458e+01 3.632085e+01 2.941897e+01 2.975342e+01 3.801978e+01 5.215809e+01 4.813299e+01 5.764078e-03 2.787855e-01 3.942227e-01 5.954759e-01 8.812916e-01 8.092266e-01 1.013110e+00 9.413522e-01 9.705895e-01 1.020077e+00 1.168666e+00 1.069600e+00 9.357358e-01 5.851501e-05 5.127415e-02 8.019359e-02 1.214535e-01 1.423000e-01 1.538588e-01 2.003724e-01 2.060525e-01 1.950121e-01 2.009995e-01 2.026341e-01 1.823577e-01 1.851251e-01 8.238961e-06
<GCONST> 5.988757e+01
<MIXTURE> 3 2.222056e-01
<MEAN> 39
 -1.422141e-01 1.357193e+01 -2.997931e+00 -9.914162e-01 -5.651329e+00 -5.730275e+00 -5.136980e+00 -1.304190e+00 -1.146196e+00 -1.596452e+00 2.674198e-01 5.056391e-01 8.808837e-01 4.360288e-02 -6.875578e-02 2.666244e-02 -1.004967e-01 3.089214e-01 -9.510236e-02 1.885916e-01 -6.930140e-02 3.356314e-01 1.599643e-01 1.821912e-01 -6.532117e-02 -1.490713e-03 -1.888468e-02 -1.289469e-01 3.139005e-02 -2.009118e-01 9.921071e-02 -9.511058e-02 -4.813175e-03 -4.209105e-02 3.760212e-02 -4.496860e-02 -3.402637e-02 -3.657616e-02 -1.983762e-03
<VARIANCE> 39
 1.624455e+01 3.608789e+01 2.644943e+01 2.058077e+01 2.190873e+01 2.544716e+01 3.692212e+01 3.152184e+01 3.251856e+01 4.465470e+01 5.796621e+01 5.938086e+01 6.037248e-03 3.096726e-01 4.566157e-01 6.570138e-01 9.151649e-01 9.255933e-01 1.149984e+00 1.005212e+00 1.073938e+00 1.110463e+00 1.243547e+00 1.195230e+00 1.072373e+00 6.304247e-05 5.637573e-02 8.787573e-02 1.351466e-01 1.571867e-01 1.795781e-01 2.268376e-01 2.238928e-01 2.224114e-01 2.152976e-01 2.374709e-01 2.012271e-01 2.243919e-01 9.580922e-06
<GCONST> 6.363503e+01
<MIXTURE> 4 1.447229e-01
<MEAN> 39
 -4.731631e-01 2.989222e+00 -3.998123e-01 5.169262e-01 4.968962e-02 -7.613833e-02 -1.898226e-01 -5.999089e-01 8.325122e-02 5.367697e-01 -5.802034e-01 1.352227e+00 9.652513e-01 1.119969e-02 -2.025381e-01 -1.852219e-01 -2.323464e-01 -2.118949e-01 -1.992067e-01 -2.809220e-01 -3.746461e-01 -3.834069e-05 -1.167986e-01 -3.261349e-02 -1.699075e-01 -2.230079e-03 -1.105451e-01 -2.276999e-01 -2.730818e-01 -2.749430e-01 -3.214276e-01 -3.302872e-01 -2.858233e-01 -2.622393e-01 -2.697957e-01 -2.556568e-01 -1.546521e-01 -1.985247e-01 -8.176283e-04
<VARIANCE> 39
 5.129739e+00 1.035461e+01 7.881808e+00 7.868995e+00 1.059722e+01 9.432846e+00 7.573692e+00 9.008497e+00 9.105175e+00 9.422553e+00 1.333289e+01 1.121071e+01 1.023540e-03 1.768034e-01 4.391742e-01 6.289031e-01 7.052326e-01 8.807568e-01 8.699468e-01 9.745003e-01 9.909540e-01 1.004054e+00 8.468780e-01 1.277402e+00 6.079239e-01 3.754082e-05 1.976991e-02 5.899547e-02 6.618561e-02 8.564474e-02 9.915984e-02 9.928261e-02 1.176612e-01 1.465879e-01 1.132462e-01 1.181447e-01 1.485481e-01 9.144986e-02 3.730628e-06
<GCONST> 3.518507e+01
<STATE> 7
<NUMMIXES> 4
<MIXTURE> 1 3.357318e-01
<MEAN> 39
 1.139314e+00 1.058061e+01 -4.831280e+00 -1.727599e-02 -3.759933e+00 -4.233524e+00 -4.674301e-01 -1.663599e-01 4.420129e+00 5.379202e+00 3.159764e+00 5.668350e+00 8.905555e-01 2.968006e-01 -1.974919e-01 -3.333031e-02 2.043251e-02 3.663044e-01 -1.255370e-01 -1.829333e-01 9.810326e-02 2.332953e-01 3.324580e-01 1.780329e-03 2.102498e-04 -3.219831e-03 -6.397396e-02 -1.270021e-01 3.388119e-02 -2.056116e-01 -9.519843e-02 -1.857579e-01 -1.673123e-01 -1.312261e-01 -1.956921e-01 -1.919544e-01 -5.844691e-02 -8.403378e-02 -2.238177e-03
<VARIANCE> 39
 2.851584e+01 3.463177e+01 3.015972e+01 1.843422e+01 1.908047e+01 1.784302e+01 2.528015e+01 3.355635e+01 6.134498e+01 6.874377e+01 8.532124e+01 9.174055e+01 6.650402e-03 5.978801e-01 7.637542e-01 1.357781e+00 1.086793e+00 1.388128e+00 1.723724e+00 1.355965e+00 1.718276e+00 1.565176e+00 1.977153e+00 1.900361e+00 1.730802e+00 1.011012e-04 8.543756e-02 1.294023e-01 2.215118e-01 1.924755e-01 1.849931e-01 2.307551e-01 2.576276e-01 2.664238e-01 2.124536e-01 3.448477e-01 3.056125e-01 3.501926e-01 1.280300e-05
<GCONST> 7.460343e+01
<MIXTURE> 2 2.076376e-01
<MEAN> 39
 -1.817244e+00 1.548558e+01 5.836055e-02 -3.114359e+00 -4.949628e+00 -5.162281e+00 -9.351063e+00 -5.438532e-01 -7.745922e-03 -4.399121e+00 4.245487e+00 -4.211010e+00 8.662685e-01 -1.372062e-04 -3.554317e-01 2.111417e-01 -5.801731e-01 5.086703e-01 -2.503132e-01 2.032762e-01 -7.708082e-02 4.090184e-01 2.642709e-01 -8.080963e-02 2.126461e-01 -4.931970e-03 1.470500e-01 -2.370518e-01 1.753853e-01 -1.259173e-01 1.923658e-01 1.050719e-01 2.056297e-01 1.185374e-01 -1.114865e-02 1.475780e-01 -1.845166e-01 1.658860e-01 -3.901420e-03
<VARIANCE> 39
 1.021957e+01 3.052631e+01 1.567249e+01 1.896509e+01 1.711238e+01 2.411666e+01 2.889845e+01 2.175619e+01 2.393028e+01 2.532762e+01 2.458367e+01 1.969588e+01 5.339023e-03 3.399248e-01 4.378302e-01 5.007799e-01 1.096381e+00 7.573803e-01 8.117539e-01 9.715585e-01 9.282677e-01 1.281165e+00 1.054575e+00 1.197843e+00 9.048594e-01 1.255792e-04 5.359854e-02 8.004858e-02 1.282889e-01 1.709305e-01 1.304714e-01 1.553832e-01 1.988813e-01 1.847916e-01 1.763082e-01 1.804738e-01 1.694644e-01 1.759896e-01 1.791402e-05
<GCONST> 5.687901e+01
<MIXTURE> 3 2.045942e-01
<MEAN> 39
 -1.670683e+00 1.473273e+01 -2.107197e-01 -2.706047e+00 -4.526039e+00 -5.158902e+00 -8.576413e+00 -5.706235e-01 -5.318398e-01 -3.893473e+00 3.489932e+00 -3.566632e+00 8.665742e-01 6.798891e-02 -2.847407e-01 1.931522e-01 -4.308733e-01 4.290799e-01 -1.694303e-01 1.581555e-01 -1.958317e-02 3.310284e-01 2.715927e-01 -4.055477e-02 1.087305e-01 -7.001553e-03 1.689015e-01 -2.114142e-01 1.586611e-01 -8.658775e-02 1.794345e-01 1.088553e-01 1.974455e-01 9.483512e-02 -1.754577e-03 1.291471e-01 -1.564574e-01 1.201987e-01 -4.151327e-03
<VARIANCE> 39
 1.053742e+01 3.483726e+01 1.515573e+01 1.819354e+01 1.568686e+01 2.372999e+01 2.953879e+01 1.940623e+01 2.229327e+01 2.495615e+01 2.742496e+01 2.012966e+01 5.367022e-03 3.286434e-01 4.281153e-01 5.095453e-01 1.027761e+00 7.240664e-01 7.383747e-01 9.717254e-01 8.861430e-01 1.198631e+00 1.093150e+00 1.203756e+00 9.243130e-01 1.155138e-04 5.355133e-02 7.711232e-02 1.214560e-01 1.526341e-01 1.297575e-01 1.427538e-01 1.979422e-01 1.732892e-01 1.714202e-01 1.852580e-01 1.687668e-01 1.795588e-01 1.520612e-05
<GCONST> 5.592907e+01
<MIXTURE> 4 2.520355e-01
<MEAN> 39
 -4.898434e-01 1.302551e+01 -6.255476e+00 -1.373404e+00 -7.503083e+00 -8.262786e+00 -3.559809e+00 -3.314652e+00 -3.693394e+00 -1.773483e+00 -5.705073e+00 1.582232e+00 8.919868e-01 -5.366597e-01 -5.707252e-01 -3.543533e-01 -1.248549e+00 -4.738795e-02 -1.014994e+00 -4.796404e-05 -6.821676e-01 3.349594e-02 -6.900769e-01 5.412654e-02 -9.104597e-01 -3.116736e-03 7.929957e-02 -1.655831e-01 3.571828e-01 -2.638281e-01 4.173555e-01 1.047993e-03 1.893231e-01 1.793100e-01 6.805317e-02 2.346605e-02 2.557107e-01 -9.701038e-02 -3.413651e-03
<VARIANCE> 39
 1.253231e+01 3.404697e+01 1.423204e+01 2.272715e+01 1.517669e+01 2.632351e+01 2.027457e+01 3.045213e+01 2.485487e+01 1.886903e+01 2.785700e+01 4.433962e+01 4.700897e-03 3.144311e-01 4.378905e-01 6.621665e-01 8.797215e-01 1.138337e+00 1.194213e+00 1.584882e+00 1.221311e+00 1.395780e+00 1.197606e+00 1.227488e+00 1.066382e+00 5.109543e-05 6.632676e-02 1.272769e-01 1.657995e-01 2.536503e-01 2.105594e-01 2.749107e-01 3.061689e-01 2.783398e-01 2.906545e-01 2.573463e-01 2.551520e-01 2.433701e-01 1.022160e-05
<GCONST> 6.306495e+01
<STATE> 8
<NUMMIXES> 4
<MIXTURE> 1 2.784038e-01
<MEAN> 39
 -1.274694e+00 1.177293e+01 -6.492422e+00 -3.863388e+00 -8.437799e+00 -1.045373e+01 -5.009280e+00 -5.074014e+00 -4.692019e+00 -4.429884e+00 -6.230424e+00 -1.343538e+00 8.685005e-01 -7.323801e-03 -3.500766e-01 5.318565e-01 -9.289494e-01 9.717111e-01 -1.603505e-01 6.588393e-01 3.514915e-01 2.448519e-01 -1.043523e-01 9.913253e-01 -3.449123e-01 -1.104080e-02 3.334181e-01 1.138837e-03 5.777423e-01 1.779597e-01 6.255926e-01 5.560368e-01 3.495596e-01 5.434764e-01 3.530686e-01 3.673287e-01 3.818144e-01 1.899998e-01 -6.143944e-03
<VARIANCE> 39
 1.904065e+01 3.430283e+01 1.714211e+01 2.371323e+01 1.394750e+01 2.696899e+01 2.260887e+01 2.887411e+01 2.034664e+01 2.177851e+01 2.800724e+01 4.261248e+01 5.738365e-03 6.846989e-01 6.913320e-01 1.108992e+00 2.005402e+00 1.429547e+00 2.030919e+00 2.796459e+00 1.673959e+00 2.293741e+00 1.670302e+00 1.738494e+00 1.877801e+00 1.301567e-04 1.095190e-01 1.529359e-01 2.350262e-01 2.671461e-01 2.068613e-01 2.738910e-01 3.935542e-01 3.758331e-01 3.365663e-01 3.622459e-01 3.335487e-01 3.579690e-01 3.296467e-05
<GCONST> 7.464701e+01
<MIXTURE> 2 2.648729e-01
<MEAN> 39
 -4.175175e-01 1.317544e+01 -4.755065e-01 -2.571354e+00 -3.104421e+00 -5.717109e+00 -6.791151e+00 -5.408524e-01 4.982991e-01 -2.436366e+00 1.744193e+00 -2.126901e+00 8.587980e-01 3.371218e-01 -6.482391e-01 5.322371e-01 -6.863179e-01 6.503167e-01 -1.408214e-01 4.631490e-01 9.537683e-02 2.909977e-01 2.411140e-01 -2.849730e-01 1.239289e-01 -1.279012e-02 1.801388e-01 -2.322727e-01 2.147708e-01 9.395927e-02 7.627106e-02 2.892709e-01 1.693322e-01 4.324299e-02 -1.529247e-01 3.588843e-02 -1.710734e-01 1.738306e-02 -6.167330e-03
<VARIANCE> 39
 1.534553e+01 3.639299e+01 1.677893e+01 2.479704e+01 1.770928e+01 2.267024e+01 3.406457e+01 2.049212e+01 2.814518e+01 2.817251e+01 2.990848e+01 2.108887e+01 5.976707e-03 4.928530e-01 6.932836e-01 9.003833e-01 1.550209e+00 1.185494e+00 1.214684e+00 1.604086e+00 1.388758e+00 1.516309e+00 1.778134e+00 1.523936e+00 1.774020e+00 1.318121e-04 7.518143e-02 1.157844e-01 1.478653e-01 2.126787e-01 2.007790e-01 1.679884e-01 2.922019e-01 2.975405e-01 2.687733e-01 2.401540e-01 2.435945e-01 2.055229e-01 2.695157e-05
<GCONST> 6.776537e+01
<MIXTURE> 3 2.606052e-01
<MEAN> 39
 -3.101883e-01 1.335460e+01 -7.061501e-01 -2.441044e+00 -2.898497e+00 -5.952467e+00 -6.931347e+00 -5.937436e-01 9.373389e-01 -2.162190e+00 1.793826e+00 -2.206560e+00 8.525540e-01 2.857086e-01 -6.990275e-01 4.992838e-01 -7.772828e-01 6.841165e-01 -1.912377e-01 5.045905e-01 1.350537e-01 3.082116e-01 2.574894e-01 -3.018654e-01 1.773894e-01 -1.066512e-02 1.601275e-01 -2.506439e-01 2.281261e-01 3.678161e-02 4.227769e-02 3.056816e-01 1.732086e-01 7.657178e-02 -1.921809e-01 2.270314e-02 -1.811955e-01 2.476940e-02 -5.576396e-03
<VARIANCE> 39
 1.603532e+01 3.771313e+01 1.819645e+01 2.792777e+01 1.897198e+01 2.652288e+01 3.515219e+01 2.192418e+01 2.825473e+01 3.031887e+01 3.195797e+01 1.958494e+01 7.715196e-03 5.043740e-01 7.029442e-01 9.507357e-01 1.713665e+00 1.223723e+00 1.308545e+00 1.635129e+00 1.492522e+00 1.553750e+00 1.784274e+00 1.586864e+00 1.730508e+00 1.944005e-04 7.694805e-02 1.251916e-01 1.491080e-01 2.411372e-01 2.082946e-01 1.797593e-01 2.941731e-01 3.066665e-01 2.690436e-01 2.482392e-01 2.598388e-01 1.997989e-01 2.900671e-05
<GCONST> 7.003634e+01
<MIXTURE> 4 1.961163e-01
<MEAN> 39
 -2.103796e+00 1.016179e+01 -6.177252e+00 -2.587135e+00 -6.835922e+00 -6.632810e+00 2.623040e-01 -1.876388e+00 3.585429e+00 6.510155e+00 9.897590e+00 1.286264e+01 9.198040e-01 -3.000002e-01 -5.455496e-01 3.499527e-01 -1.052906e+00 5.840456e-01 -7.852518e-01 -5.968796e-02 -1.440194e-01 -2.033854e-01 1.279454e-01 -2.250649e-01 -3.930353e-01 -7.306769e-03 2.032574e-01 -1.802252e-01 3.471418e-01 -6.810374e-02 1.462850e-01 7.753508e-02 -2.132410e-01 9.593076e-02 -2.352660e-01 -3.547176e-01 -5.623432e-01 -6.127215e-01 -7.191430e-03
<VARIANCE> 39
 2.311878e+01 2.085512e+01 2.520757e+01 1.477740e+01 5.132349e+01 2.765891e+01 2.262706e+01 2.319211e+01 4.894481e+01 5.752734e+01 7.868589e+01 9.002128e+01 4.217250e-03 8.205032e-01 8.640317e-01 1.284183e+00 1.748961e+00 2.739312e+00 1.664596e+00 1.822593e+00 1.540621e+00 1.294961e+00 2.144377e+00 2.702770e+00 3.029021e+00 1.349827e-04 1.158933e-01 1.985267e-01 3.065912e-01 2.112155e-01 3.714258e-01 2.698932e-01 3.914998e-01 2.324928e-01 2.549146e-01 4.278496e-01 3.046776e-01 5.202039e-01 2.548872e-05
<GCONST> 8.002406e+01
<STATE> 9
<NUMMIXES> 4
<MIXTURE> 1 2.673293e-01
<MEAN> 39
 -2.707864e+00 1.367227e+01 -3.720868e+00 -6.823985e+00 -3.019608e+00 -1.143883e+01 -1.854209e+00 -2.174170e+00 -5.880003e-01 -2.502851e+00 -2.020691e+00 -1.706650e+00 8.698796e-01 2.491083e-01 -1.531932e+00 1.635524e+00 -2.210192e+00 1.732882e+00 1.657763e-01 1.049761e+00 1.427059e+00 5.390834e-01 6.034638e-01 3.470481e-01 -4.164410e-01 -1.154307e-02 3.579017e-01 -4.522165e-01 4.913040e-01 4.705762e-01 -1.500079e-01 1.095638e+00 -1.893587e-01 3.706269e-01 -1.381044e-01 9.601268e-02 7.862035e-03 1.652071e-01 -7.596931e-03
<VARIANCE> 39
 1.252061e+01 3.089886e+01 1.681277e+01 1.932099e+01 1.724391e+01 2.432613e+01 4.303694e+01 3.795645e+01 2.658585e+01 2.123260e+01 3.185211e+01 3.066149e+01 5.193006e-03 6.131121e-01 1.154520e+00 1.980503e+00 2.091062e+00 2.129860e+00 2.421667e+00 2.917770e+00 2.681331e+00 3.066780e+00 2.477075e+00 2.490402e+00 2.477253e+00 2.408447e-04 1.211486e-01 2.510780e-01 1.808036e-01 3.693559e-01 4.293526e-01 2.446180e-01 4.632937e-01 3.549231e-01 4.282913e-01 4.284216e-01 3.457463e-01 3.386573e-01 6.095571e-05
<GCONST> 8.130118e+01
<MIXTURE> 2 3.013020e-01
<MEAN> 39
 2.600237e-01 1.128213e+01 -4.185093e-01 -3.270690e+00 -3.397998e+00 -5.476977e+00 -6.179110e+00 -9.335261e-01 -6.080791e-01 -2.484580e+00 6.364508e-01 -1.809426e+00 8.366793e-01 7.536375e-01 -6.014993e-01 8.230557e-01 6.414547e-02 8.525918e-01 6.239313e-01 6.054675e-01 1.662676e-01 1.497924e-01 2.737754e-01 -1.160821e-01 1.176603e-01 -2.346049e-02 7.053854e-02 -4.189544e-02 2.105851e-01 4.858491e-01 1.948880e-01 3.723754e-01 2.209511e-01 6.485754e-03 -7.757702e-02 3.345451e-02 -6.394201e-02 4.450022e-02 -9.601034e-03
<VARIANCE> 39
 1.733401e+01 3.938394e+01 2.388769e+01 3.327276e+01 1.933993e+01 2.306380e+01 3.106752e+01 2.338836e+01 3.003526e+01 2.879543e+01 3.896147e+01 2.738775e+01 7.513421e-03 7.536276e-01 9.514173e-01 1.510733e+00 1.533832e+00 1.593159e+00 1.621498e+00 2.483606e+00 1.941275e+00 1.931599e+00 2.183275e+00 2.706208e+00 2.587182e+00 2.587753e-04 9.863041e-02 1.239989e-01 2.244462e-01 2.892207e-01 2.189298e-01 2.453499e-01 2.990094e-01 3.379886e-01 3.268233e-01 3.017910e-01 3.350646e-01 2.978826e-01 6.021386e-05
<GCONST> 7.787688e+01
<MIXTURE> 3 3.092218e-01
<MEAN> 39
 7.824637e-01 1.067943e+01 -1.094734e+00 -2.425406e+00 -3.361523e+00 -5.579775e+00 -5.379385e+00 -1.104439e+00 -1.191190e+00 -2.086827e+00 -3.827535e-01 -1.011366e+00 8.385826e-01 7.217746e-01 -5.284529e-01 8.068309e-01 6.922385e-02 7.800573e-01 4.919406e-01 4.328399e-01 6.211222e-02 7.399677e-02 2.343224e-01 3.923550e-03 -5.382343e-02 -2.318026e-02 5.444390e-02 -4.983599e-02 2.557218e-01 4.171190e-01 1.819703e-01 3.524337e-01 1.784308e-01 -2.778125e-02 -3.458446e-02 3.456948e-02 -1.317884e-02 1.743663e-02 -8.817949e-03
<VARIANCE> 39
 1.807185e+01 3.646634e+01 2.246906e+01 2.641640e+01 1.974535e+01 2.034176e+01 2.928989e+01 2.371373e+01 2.849378e+01 2.741833e+01 4.151305e+01 2.865511e+01 6.584500e-03 7.528591e-01 8.624130e-01 1.404204e+00 1.310725e+00 1.547166e+00 1.444365e+00 2.595918e+00 1.970761e+00 1.911095e+00 2.186881e+00 2.684092e+00 2.477394e+00 1.555386e-04 9.634382e-02 1.130211e-01 2.119274e-01 2.456560e-01 2.071514e-01 2.341644e-01 2.938166e-01 3.319152e-01 3.199528e-01 2.887211e-01 3.549024e-01 3.090902e-01 4.645972e-05
<GCONST> 7.558498e+01
<MIXTURE> 4 1.221468e-01
<MEAN> 39
 -3.756988e+00 1.029500e+01 -5.203042e+00 -5.520859e+00 -3.977596e+00 -8.134847e+00 1.689738e-01 -1.049477e+00 5.253409e+00 8.508471e+00 8.880177e+00 1.170620e+01 8.941787e-01 4.995987e-01 -1.064098e+00 1.122609e+00 -1.107889e+00 9.600287e-01 -1.569904e-01 -3.652394e-01 4.494728e-01 -1.330409e+00 -9.620398e-01 -1.756404e+00 -1.911949e+00 -2.286432e-02 4.506783e-01 -1.936930e-01 4.998583e-01 4.619085e-01 -4.507868e-03 6.576422e-01 -1.636721e-01 6.865777e-02 -4.139945e-01 -7.364932e-01 -5.421864e-01 -7.604252e-01 -1.330563e-02
<VARIANCE> 39
 1.781339e+01 2.452925e+01 3.708940e+01 1.003902e+01 2.983127e+01 2.243434e+01 3.750455e+01 4.025833e+01 6.299367e+01 7.594585e+01 3.322911e+01 8.466629e+01 5.367176e-03 1.246904e+00 1.248611e+00 1.849680e+00 2.088178e+00 2.246279e+00 1.232681e+00 2.481469e+00 1.891726e+00 2.160424e+00 4.395559e+00 4.286592e+00 3.688538e+00 2.868150e-04 1.877681e-01 3.149590e-01 3.432011e-01 2.821284e-01 6.253485e-01 3.665356e-01 6.238183e-01 4.371914e-01 4.298291e-01 5.439678e-01 3.294811e-01 5.933094e-01 1.137887e-04
<GCONST> 8.980251e+01
<STATE> 10
<NUMMIXES> 4
<MIXTURE> 1 2.479880e-01
<MEAN> 39
 -3.388164e-01 1.154958e+01 -1.593518e+00 -8.433243e+00 -1.833799e+00 -9.056272e+00 -1.246127e+00 9.662142e-01 6.195685e-01 1.691343e+00 1.276099e+00 2.958244e-01 8.495456e-01 1.080606e+00 -1.194995e+00 2.019632e+00 2.479858e-01 1.414138e+00 1.688922e+00 4.508666e-01 9.798940e-01 -6.507983e-02 -3.689657e-01 -5.405946e-01 -1.218908e+00 -4.217599e-02 -1.276365e-01 -1.041376e-01 1.544695e-01 1.144918e+00 8.471792e-02 9.139270e-01 -3.678150e-02 -6.544643e-02 -1.498823e-01 -1.626484e-01 1.073561e-01 2.438224e-01 -1.888924e-02
<VARIANCE> 39
 1.045339e+01 3.302840e+01 2.776803e+01 2.631449e+01 2.372487e+01 2.245462e+01 3.507708e+01 3.566945e+01 4.889087e+01 4.997086e+01 3.830149e+01 7.102219e+01 5.075661e-03 1.197736e+00 1.447121e+00 2.359889e+00 2.587254e+00 2.648898e+00 2.841935e+00 4.260674e+00 3.697105e+00 4.603361e+00 5.180433e+00 5.664203e+00 5.677094e+00 4.728234e-04 2.491512e-01 3.291607e-01 3.086479e-01 4.074546e-01 4.685568e-01 3.823012e-01 4.165450e-01 4.778477e-01 5.393793e-01 5.634377e-01 4.618085e-01 5.376929e-01 1.680460e-04
<GCONST> 9.488837e+01
<MIXTURE> 2 3.069368e-01
<MEAN> 39
 2.594785e+00 9.646497e+00 -3.389577e-01 -1.069528e+00 -2.086214e+00 -4.477527e+00 -4.153398e+00 -1.171131e+00 -1.094001e+00 -1.312134e+00 -8.201715e-02 -5.939242e-01 7.950326e-01 7.395077e-01 -2.954643e-01 1.030075e+00 7.744056e-01 8.946026e-01 8.348503e-01 5.550113e-01 -1.538101e-01 6.474446e-02 2.648026e-01 5.621325e-02 3.027276e-02 -3.152841e-02 -2.388926e-01 -5.466741e-02 1.567544e-01 3.612547e-01 1.040769e-01 2.173022e-01 5.636598e-02 -3.680273e-02 1.948897e-03 -1.333771e-02 -2.861614e-02 3.073435e-02 -9.168755e-03
<VARIANCE> 39
 1.995893e+01 4.045265e+01 2.279196e+01 2.995927e+01 2.231405e+01 2.469019e+01 3.251498e+01 2.964713e+01 2.775562e+01 2.920554e+01 3.209404e+01 2.601185e+01 7.426426e-03 9.158776e-01 8.378448e-01 1.799744e+00 1.252930e+00 1.631228e+00 1.553349e+00 2.780709e+00 2.290713e+00 1.907770e+00 2.211988e+00 2.885607e+00 2.170626e+00 3.490213e-04 1.009819e-01 1.555699e-01 2.273960e-01 2.566228e-01 2.939191e-01 3.748135e-01 3.692852e-01 3.647050e-01 3.402546e-01 4.073595e-01 3.643192e-01 3.264757e-01 7.777431e-05
<GCONST> 8.047388e+01
<MIXTURE> 3 2.952595e-01
<MEAN> 39
 1.690998e+00 1.036797e+01 9.565632e-01 -2.407806e+00 -2.250803e+00 -4.423465e+00 -5.031311e+00 -8.633167e-01 -6.042953e-01 -2.038701e+00 6.017691e-01 -1.321479e+00 7.986683e-01 7.811627e-01 -3.870555e-01 1.068824e+00 8.414375e-01 9.796763e-01 9.942498e-01 7.693618e-01 -4.268391e-02 4.491349e-02 2.567047e-01 -1.485095e-01 1.135012e-01 -3.513519e-02 -2.164751e-01 -5.920766e-02 5.740732e-02 4.677639e-01 1.259106e-01 2.720853e-01 1.034536e-01 -2.430148e-02 -4.693114e-02 1.342468e-02 -1.242804e-02 5.366645e-02 -1.055031e-02
<VARIANCE> 39
 1.948831e+01 3.802120e+01 2.577024e+01 3.440321e+01 2.083159e+01 2.326489e+01 3.208047e+01 2.800025e+01 2.808574e+01 2.880723e+01 3.004709e+01 2.539731e+01 6.872998e-03 8.925203e-01 8.519425e-01 1.709613e+00 1.328012e+00 1.705009e+00 1.583227e+00 2.773288e+00 2.256750e+00 1.902956e+00 2.181351e+00 2.644238e+00 2.087672e+00 3.562443e-04 1.078901e-01 1.669002e-01 2.423305e-01 2.891619e-01 2.938729e-01 3.509918e-01 3.755885e-01 3.522197e-01 3.427339e-01 3.932452e-01 3.377532e-01 3.406944e-01 9.108321e-05
<GCONST> 8.053480e+01
<MIXTURE> 4 1.498154e-01
<MEAN> 39
 -4.080943e+00 9.095747e+00 3.012219e-01 -1.132378e+01 4.772990e-01 -9.146655e+00 -3.113366e+00 1.118668e+00 5.258378e-01 8.056351e-02 -2.247577e-01 2.102199e-01 8.858481e-01 4.075167e-01 -2.996051e+00 1.679541e+00 -2.187705e+00 -9.269427e-02 1.987485e+00 1.768299e-01 1.409009e+00 -3.669184e-01 2.309682e-01 -6.511208e-01 4.712153e-02 -4.516882e-03 4.206608e-01 -5.009063e-01 -7.514208e-02 1.079531e+00 -9.768327e-01 8.405226e-01 4.410409e-02 -3.171071e-01 -6.235621e-02 -2.590857e-01 -1.107607e-01 -9.058504e-02 -2.666373e-03
<VARIANCE> 39
 1.409325e+01 2.165807e+01 2.339000e+01 1.696131e+01 2.502651e+01 3.582539e+01 4.380175e+01 3.247393e+01 2.739522e+01 2.630580e+01 3.658207e+01 3.782959e+01 6.086116e-03 5.497593e-01 8.656213e-01 2.395905e+00 9.587907e-01 1.603464e+00 2.543015e+00 3.341889e+00 2.402471e+00 2.746313e+00 2.725277e+00 3.263070e+00 2.513595e+00 1.824602e-04 1.271431e-01 1.915813e-01 1.688051e-01 3.296007e-01 3.712248e-01 3.198837e-01 5.345632e-01 5.409554e-01 4.189197e-01 3.731700e-01 4.208715e-01 3.458273e-01 1.674681e-05
<GCONST> 8.048161e+01
<STATE> 11
<NUMMIXES> 4
<MIXTURE> 1 1.834424e-01
<MEAN> 39
 -2.515110e+00 5.682063e+00 3.823432e+00 -1.281364e+01 -8.481400e-01 -4.549374e+00 -4.465346e+00 2.216824e+00 3.423965e-02 -1.120536e+00 -3.236250e-01 -3.106813e-02 8.583986e-01 1.134983e+00 -2.354174e+00 1.627554e+00 6.343309e-01 -1.116040e+00 2.527715e+00 3.547012e-01 1.901814e-01 6.451315e-02 -3.070376e-01 -6.190623e-01 -2.294539e-01 -2.018049e-02 1.764964e-01 1.078761e-01 -6.957646e-01 1.424544e+00 -4.195343e-01 -9.193017e-02 3.524203e-01 -4.080437e-01 4.100910e-02 -6.271852e-02 7.091866e-02 3.475347e-03 -3.334374e-03
<VARIANCE> 39
 1.583461e+01 3.002282e+01 3.424541e+01 2.058680e+01 2.360423e+01 3.578477e+01 3.273365e+01 2.705010e+01 2.571861e+01 3.418568e+01 3.430011e+01 3.365506e+01 6.915347e-03 9.602003e-01 3.294883e+00 2.106753e+00 2.327526e+00 3.278667e+00 3.271278e+00 4.456238e+00 3.220992e+00 2.924807e+00 4.101432e+00 4.428383e+00 3.862773e+00 6.764656e-04 2.584489e-01 2.698074e-01 4.127775e-01 6.049083e-01 4.172631e-01 4.301982e-01 4.767697e-01 5.510141e-01 5.513771e-01 6.228291e-01 3.703950e-01 3.942332e-01 1.198195e-04
<GCONST> 9.345739e+01
<MIXTURE> 2 3.545067e-01
<MEAN> 39
 3.613701e+00 1.013531e+01 1.549949e+00 -5.304263e-01 -4.914450e-01 -3.997168e+00 -3.589803e+00 -1.485793e+00 -1.389474e+00 -1.468444e+00 -1.010708e+00 -1.672409e+00 7.481274e-01 1.523658e-01 -6.241828e-01 1.472286e+00 1.712831e+00 1.208580e+00 1.298472e+00 3.838881e-01 -1.652268e-01 -2.920861e-01 -1.211730e-01 -1.020790e-01 -1.474393e-01 -4.995038e-02 -5.964834e-01 -2.364180e-01 -1.266953e-01 2.887171e-01 7.214253e-02 2.348856e-01 1.098727e-01 2.085087e-01 1.815203e-01 1.315065e-01 2.362369e-01 2.411639e-01 -1.541549e-02
<VARIANCE> 39
 1.599171e+01 3.690680e+01 2.540051e+01 3.269182e+01 2.980392e+01 2.660261e+01 3.113071e+01 3.139057e+01 2.992049e+01 2.543065e+01 3.223538e+01 3.479247e+01 1.050312e-02 1.073706e+00 1.146778e+00 1.955517e+00 2.241964e+00 2.120083e+00 2.686069e+00 2.980501e+00 2.569080e+00 2.118226e+00 2.643808e+00 3.076294e+00 3.090504e+00 8.055607e-04 1.772733e-01 2.042245e-01 3.925031e-01 3.505303e-01 3.936732e-01 4.962612e-01 4.760163e-01 4.690681e-01 4.047163e-01 4.007880e-01 4.649556e-01 4.688604e-01 2.053456e-04
<GCONST> 8.948565e+01
<MIXTURE> 3 3.543084e-01
<MEAN> 39
 3.561044e+00 1.011093e+01 1.586799e+00 -5.143235e-01 -2.203675e-01 -3.733593e+00 -3.511267e+00 -1.268855e+00 -1.201869e+00 -1.528129e+00 -1.087439e+00 -1.915346e+00 7.457650e-01 1.873846e-01 -6.042082e-01 1.409519e+00 1.693007e+00 1.197155e+00 1.265270e+00 4.083165e-01 -1.779296e-01 -2.931561e-01 -1.573020e-01 -1.488833e-01 -1.132575e-01 -4.848449e-02 -5.794424e-01 -2.163392e-01 -1.244696e-01 2.692154e-01 3.987986e-02 1.822720e-01 7.236081e-02 1.724001e-01 1.624593e-01 1.266592e-01 2.506847e-01 2.458461e-01 -1.422362e-02
<VARIANCE> 39
 1.570481e+01 3.785178e+01 2.626373e+01 3.321657e+01 3.108202e+01 2.614312e+01 3.154078e+01 3.004230e+01 2.951797e+01 2.517631e+01 3.269696e+01 3.418774e+01 1.061046e-02 1.062302e+00 1.115822e+00 1.961766e+00 2.262292e+00 2.114891e+00 2.714551e+00 3.003113e+00 2.492507e+00 2.086694e+00 2.538125e+00 3.033451e+00 3.047524e+00 8.034850e-04 1.751390e-01 2.044136e-01 4.100631e-01 3.438618e-01 4.067908e-01 4.875597e-01 4.654303e-01 4.463899e-01 3.967910e-01 3.955420e-01 4.626176e-01 4.646781e-01 2.054324e-04
<GCONST> 8.930224e+01
<MIXTURE> 4 1.077423e-01
<MEAN> 39
 2.359653e+00 1.174678e+01 -2.870495e+00 -5.544534e+00 -1.262852e+00 -3.730306e+00 2.211072e+00 6.676652e+00 6.654596e+00 5.477582e+00 3.166279e+00 -2.996612e-01 7.001258e-01 2.069459e-01 -1.375997e+00 6.482972e-01 3.412390e-01 1.004512e+00 2.058954e+00 8.319059e-01 2.708022e-01 1.527560e-01 -8.604301e-01 -1.010020e-01 2.463779e-01 -4.647413e-02 -3.466147e-01 -4.156043e-01 -2.798435e-03 4.423273e-01 -1.011652e-01 2.009794e-01 -3.414092e-01 -8.721966e-01 -8.691636e-01 -6.328582e-01 -3.656733e-01 1.807004e-01 -6.387060e-03
<VARIANCE> 39
 1.988594e+01 2.809975e+01 1.537460e+01 6.051390e+01 2.281037e+01 2.724328e+01 6.317426e+01 3.200489e+01 3.763729e+01 4.917653e+01 3.521658e+01 6.506698e+01 1.338566e-02 1.182362e+00 3.688535e+00 2.464651e+00 2.523359e+00 2.580986e+00 5.415530e+00 3.556453e+00 3.576008e+00 4.645916e+00 5.019397e+00 6.201731e+00 3.753227e+00 1.526637e-03 1.652637e-01 2.483109e-01 2.745275e-01 6.378473e-01 3.464182e-01 5.325184e-01 5.084994e-01 5.446468e-01 8.257911e-01 8.451406e-01 7.780529e-01 1.108243e+00 2.331552e-04
<GCONST> 1.013406e+02
<STATE> 12
<NUMMIXES> 4
<MIXTURE> 1 1.053645e-01
<MEAN> 39
 -1.779467e+00 3.155593e+00 -3.079278e+00 -1.044861e+01 4.160336e+00 7.245734e+00 8.273447e+00 7.652041e+00 1.797338e+00 -4.257430e+00 1.628597e+00 -5.931017e-01 6.698068e-01 -8.720075e-02 -2.844169e+00 8.584503e-01 1.539024e+00 9.181820e-01 3.226089e+00 -2.818167e-01 -1.838104e+00 -7.005524e-01 -1.051981e+00 5.346763e-01 1.583457e+00 -4.225380e-02 -1.971871e-01 1.286139e-01 -1.009265e-01 7.891790e-01 -6.747003e-01 -1.137754e+00 -8.386418e-01 -1.002787e+00 1.891519e-01 9.975331e-01 -1.093221e-02 1.285962e-01 9.742100e-03
<VARIANCE> 39
 9.042724e+00 3.592496e+01 4.348101e+01 4.979986e+01 5.119628e+01 5.273302e+01 8.931687e+01 4.484465e+01 4.479765e+01 8.074236e+01 6.547057e+01 3.418230e+01 1.436167e-02 6.369324e-01 3.218232e+00 2.348213e+00 2.805215e+00 3.988384e+00 6.352697e+00 7.353721e+00 4.233676e+00 7.240204e+00 6.576416e+00 5.829925e+00 6.947619e+00 2.114027e-03 2.160570e-01 2.647674e-01 6.718196e-01 5.269192e-01 6.618040e-01 7.921885e-01 1.383882e+00 9.991276e-01 1.728724e+00 1.893551e+00 1.961741e+00 1.286486e+00 2.908870e-04
<GCONST> 1.134273e+02
<MIXTURE> 2 3.802189e-01
<MEAN> 39
 2.791558e+00 9.729292e+00 4.047272e+00 8.718957e-01 2.108631e-01 -1.942905e+00 -3.550616e+00 -1.731346e+00 -1.330891e+00 -2.069724e+00 -5.189918e-01 -1.227722e+00 6.916119e-01 -6.170642e-01 -8.950850e-01 9.157293e-01 1.807319e+00 1.080190e+00 1.494416e+00 5.167169e-01 2.193910e-01 5.855549e-02 9.814431e-02 2.963392e-01 2.799044e-01 -6.846187e-02 -6.899596e-01 -3.635196e-01 -5.757328e-01 -1.969429e-01 -1.130303e-01 -5.701337e-02 2.472979e-01 3.948510e-01 3.705242e-01 3.305373e-01 2.483254e-01 1.695694e-01 -1.148036e-02
<VARIANCE> 39
 1.684131e+01 3.952646e+01 2.443614e+01 3.475367e+01 2.677475e+01 2.693193e+01 3.442675e+01 3.243246e+01 3.333466e+01 2.919559e+01 3.335379e+01 3.397841e+01 1.206504e-02 1.170250e+00 1.743343e+00 1.824633e+00 2.586048e+00 2.073801e+00 2.677242e+00 2.420603e+00 2.384973e+00 2.394725e+00 2.855250e+00 2.382770e+00 2.464956e+00 1.927320e-03 2.413200e-01 2.796541e-01 4.246220e-01 3.509895e-01 4.794987e-01 6.129368e-01 6.269239e-01 6.047422e-01 4.865417e-01 4.974317e-01 5.639845e-01 6.047070e-01 3.677494e-04
<GCONST> 9.399398e+01
<MIXTURE> 3 3.789394e-01
<MEAN> 39
 2.911380e+00 9.912603e+00 4.169949e+00 1.639585e+00 9.379151e-02 -2.401731e+00 -3.533189e+00 -1.819849e+00 -1.617910e+00 -1.827751e+00 -5.632918e-01 -1.381861e+00 6.872068e-01 -8.620924e-01 -1.096299e+00 1.026617e+00 2.034366e+00 1.289054e+00 1.748740e+00 6.610763e-01 3.573464e-01 9.068745e-02 2.038798e-01 3.425897e-01 2.915063e-01 -7.760797e-02 -7.260961e-01 -4.524230e-01 -5.634941e-01 -1.638996e-01 -3.554735e-02 8.880351e-02 2.765990e-01 4.501115e-01 4.004700e-01 3.279464e-01 2.645118e-01 2.192518e-01 -1.647271e-02
<VARIANCE> 39
 1.689468e+01 3.778198e+01 2.189964e+01 3.157897e+01 2.657833e+01 2.752795e+01 3.331061e+01 3.366015e+01 3.437363e+01 2.787770e+01 3.328860e+01 3.463078e+01 1.091391e-02 1.144666e+00 1.806871e+00 1.868175e+00 2.689372e+00 2.071150e+00 2.909371e+00 2.441321e+00 2.541568e+00 2.453672e+00 3.051476e+00 2.405292e+00 2.496830e+00 1.708890e-03 2.393211e-01 2.510470e-01 3.758134e-01 3.426287e-01 4.499087e-01 6.037536e-01 6.233090e-01 6.175331e-01 5.026199e-01 5.002870e-01 5.377257e-01 5.764257e-01 2.852701e-04
<GCONST> 9.325245e+01
<MIXTURE> 4 1.354770e-01
<MEAN> 39
 -2.114126e+00 -5.928750e-01 4.384257e+00 -1.205370e+01 -6.599057e+00 7.359562e-01 -1.404844e+00 9.456587e-01 2.084544e+00 -2.944997e-02 -3.139388e+00 7.598683e-01 8.867266e-01 1.523605e+00 -3.348990e+00 -7.269679e-02 2.694530e+00 -2.245223e+00 1.375254e+00 2.443828e+00 -5.636894e-01 -7.343022e-01 2.731403e-01 -1.204403e+00 -3.994366e-01 -5.389703e-03 2.899544e-01 4.323996e-01 -1.010426e+00 1.275496e+00 5.359613e-01 -1.162891e+00 1.178223e-01 -1.215274e-01 -3.318873e-01 -1.034615e-01 3.629989e-01 -3.357125e-02 1.187876e-03
<VARIANCE> 39
 1.427073e+01 2.707978e+01 2.525978e+01 1.636856e+01 1.869080e+01 5.133041e+01 4.351270e+01 2.834968e+01 3.529398e+01 2.256525e+01 4.278893e+01 4.631269e+01 6.065190e-03 1.088032e+00 1.446522e+00 1.203115e+00 2.482152e+00 2.236318e+00 3.183617e+00 3.016722e+00 4.192786e+00 3.948602e+00 2.690811e+00 3.981287e+00 2.225452e+00 2.348004e-04 1.147511e-01 1.212032e-01 4.603436e-01 3.468350e-01 3.643900e-01 5.774701e-01 4.790554e-01 5.092588e-01 9.162073e-01 3.116065e-01 5.720203e-01 4.280080e-01 2.980709e-05
<GCONST> 8.688457e+01
<STATE> 13
<NUMMIXES> 4
<MIXTURE> 1 3.426943e-01
<MEAN> 39
 1.190447e+00 7.137914e+00 5.818905e+00 5.916058e+00 1.314904e+00 -1.535123e+00 -4.028275e+00 -3.259814e+00 -3.386905e+00 -1.039808e+00 6.726326e-02 -4.008848e-01 5.785267e-01 -2.203408e+00 -2.281292e+00 5.934973e-01 1.616437e+00 1.877928e+00 2.603775e+00 1.603978e+00 1.879796e+00 1.138157e+00 9.558684e-01 7.662745e-01 3.873690e-01 -1.254537e-01 -4.651903e-01 -4.195489e-01 -6.546217e-01 -4.138122e-01 5.060304e-02 2.576063e-01 6.181261e-01 7.564062e-01 6.447442e-01 3.545552e-01 1.540123e-01 1.655594e-01 -1.390741e-02
<VARIANCE> 39
 2.333000e+01 3.541881e+01 1.655041e+01 2.080956e+01 2.055472e+01 2.729286e+01 2.566298e+01 3.242465e+01 2.865200e+01 2.255874e+01 3.468516e+01 2.914502e+01 1.077059e-02 9.599996e-01 1.295522e+00 1.874209e+00 2.231990e+00 1.690903e+00 2.440924e+00 2.158270e+00 2.778618e+00 2.908449e+00 3.087050e+00 3.209988e+00 2.958863e+00 1.164424e-03 2.591247e-01 2.522078e-01 2.806872e-01 3.620006e-01 4.348451e-01 4.435070e-01 4.431757e-01 5.725337e-01 4.630828e-01 5.244008e-01 4.397427e-01 4.968532e-01 2.053816e-04
<GCONST> 8.923829e+01
<MIXTURE> 2 2.513124e-01
<MEAN> 39
 3.520661e-01 9.439903e+00 4.659230e+00 2.469297e+00 3.361987e+00 1.164822e+00 -1.668676e+00 4.226233e-01 1.940330e-01 -2.453163e+00 4.795054e-01 -8.333621e-01 6.095011e-01 -1.432052e+00 -1.522514e+00 -4.642594e-01 1.000082e+00 4.243778e-01 6.805463e-01 5.426185e-01 3.503420e-01 5.887822e-01 6.357772e-01 6.405072e-01 8.243882e-01 -7.602161e-02 -4.260437e-01 -3.232867e-01 -6.118093e-01 -7.222703e-01 -5.134732e-01 -5.263159e-01 -4.849733e-02 1.300521e-01 2.855866e-01 3.848923e-01 1.733422e-01 3.760318e-02 1.297851e-03
<VARIANCE> 39
 1.541850e+01 4.435950e+01 2.580521e+01 5.008924e+01 3.745485e+01 3.259349e+01 3.739711e+01 2.840733e+01 3.696543e+01 3.993377e+01 3.478222e+01 3.187221e+01 2.189391e-02 1.322323e+00 2.259821e+00 2.105251e+00 2.547570e+00 1.816319e+00 2.741515e+00 2.184427e+00 1.912639e+00 2.122260e+00 2.578698e+00 2.126433e+00 2.790427e+00 3.999882e-03 1.726959e-01 4.049685e-01 3.979011e-01 5.084178e-01 4.633712e-01 5.750643e-01 6.619340e-01 5.110245e-01 5.111666e-01 6.469243e-01 6.071569e-01 5.837275e-01 4.361803e-04
<GCONST> 9.715385e+01
<MIXTURE> 3 2.503759e-01
<MEAN> 39
 1.002555e+00 8.762506e+00 3.308037e+00 -2.786447e-01 1.564011e+00 2.563579e-01 -1.878547e+00 3.269314e-01 1.216625e-01 -1.568113e+00 8.183241e-01 -2.508624e-01 6.448232e-01 -1.016503e+00 -9.975388e-01 -2.050379e-01 6.735521e-01 3.556114e-01 4.451893e-01 5.634778e-01 4.148733e-01 4.459701e-01 5.229318e-01 6.362863e-01 4.293724e-01 -5.303164e-02 -4.530841e-01 -1.796918e-01 -5.925590e-01 -5.128461e-01 -3.264022e-01 -4.999462e-01 1.135654e-01 1.653899e-01 2.760985e-01 3.735336e-01 6.542561e-02 -1.694655e-02 6.032158e-03
<VARIANCE> 39
 1.556144e+01 4.370097e+01 3.396823e+01 4.826482e+01 4.135659e+01 3.386914e+01 5.205943e+01 3.972430e+01 4.219538e+01 5.081463e+01 4.288106e+01 3.669762e+01 2.605924e-02 1.170814e+00 2.022346e+00 1.739756e+00 2.311320e+00 1.933359e+00 2.209400e+00 2.079413e+00 2.303181e+00 2.158140e+00 2.614265e+00 2.402130e+00 2.629572e+00 4.098724e-03 1.986856e-01 3.913653e-01 5.905311e-01 5.929979e-01 5.821309e-01 5.860050e-01 8.661456e-01 6.703365e-01 5.823568e-01 8.308567e-01 8.377634e-01 9.010047e-01 3.965506e-04
<GCONST> 1.011505e+02
<MIXTURE> 4 1.556174e-01
<MEAN> 39
 -5.494017e-01 -4.631763e+00 2.429482e+00 -5.513676e+00 -7.122742e+00 2.043133e+00 3.692190e+00 -1.094805e+00 -2.920321e-01 5.202883e-01 -2.739249e+00 1.823778e-01 8.180869e-01 1.442884e+00 -2.607901e+00 -1.226019e+00 3.700249e+00 -5.922453e-01 -9.274203e-01 1.169059e+00 -7.487430e-01 -8.997471e-01 2.885429e-01 -3.364286e-01 3.133656e-03 -2.824168e-04 5.844656e-02 8.103039e-01 -8.434947e-01 6.405752e-02 1.022786e+00 -1.030471e+00 -6.194513e-01 2.061456e-01 6.686100e-02 -2.331394e-03 2.037878e-01 -9.742310e-02 7.192752e-03
<VARIANCE> 39
 1.239407e+01 2.348757e+01 2.592916e+01 2.296354e+01 6.328772e+01 7.947244e+01 4.472100e+01 2.960631e+01 3.298649e+01 3.325951e+01 5.296490e+01 4.625808e+01 2.022639e-02 2.098628e+00 1.153642e+00 2.549051e+00 2.450518e+00 1.732029e+00 4.376204e+00 6.279722e+00 7.243194e+00 7.829611e+00 3.940915e+00 3.853451e+00 2.797451e+00 5.698390e-04 9.240472e-02 2.002023e-01 4.571880e-01 2.831797e-01 1.238492e+00 5.648071e-01 7.430886e-01 6.201825e-01 5.876871e-01 7.180083e-01 9.581760e-01 6.661031e-01 1.698061e-04
<GCONST> 1.000921e+02
<STATE> 14
<NUMMIXES> 4
<MIXTURE> 1 3.030187e-01
<MEAN> 39
 -1.480176e+00 3.136035e+00 5.661258e+00 6.489193e+00 3.906621e+00 2.411899e+00 -4.531682e-01 1.260933e-01 -9.910223e-01 8.553617e-01 8.561355e-01 1.138867e-01 4.126496e-01 -2.255050e+00 -2.492701e+00 9.778342e-02 1.138584e+00 2.083875e+00 2.932907e+00 2.504401e+00 2.779041e+00 1.759770e+00 1.382121e+00 8.179696e-01 2.191672e-01 -1.318132e-01 7.470461e-02 1.018134e-01 -4.987283e-01 -4.044825e-01 -1.826935e-01 -2.135224e-01 2.258296e-01 2.660424e-01 2.891604e-01 1.499882e-01 -5.019642e-02 1.878164e-02 1.062991e-02
<VARIANCE> 39
 2.828528e+01 3.329503e+01 1.401143e+01 1.984031e+01 2.175138e+01 3.010857e+01 3.133608e+01 3.717407e+01 3.101877e+01 3.070880e+01 4.321320e+01 2.778032e+01 2.045635e-02 1.189255e+00 1.596076e+00 1.539096e+00 1.441829e+00 1.764455e+00 1.884786e+00 2.334233e+00 3.422584e+00 3.064076e+00 3.597795e+00 3.757233e+00 4.224067e+00 1.234700e-03 1.871091e-01 2.436185e-01 2.238032e-01 3.543435e-01 3.540885e-01 4.710648e-01 3.881161e-01 4.343196e-01 4.338278e-01 5.293713e-01 4.070164e-01 3.432079e-01 4.927858e-04
<GCONST> 9.069387e+01
<MIXTURE> 2 1.882936e-01
<MEAN> 39
 -2.840088e+00 6.418011e+00 3.164439e+00 4.130264e+00 3.484386e+00 1.967471e+00 -5.910897e-01 1.351730e+00 1.314578e+00 -8.188687e-01 2.385835e+00 7.173818e-01 4.036238e-01 -1.913727e+00 -2.636043e+00 -1.024382e+00 1.340731e-01 -1.444112e-01 4.220623e-01 6.052125e-01 7.594661e-01 1.183581e+00 1.198914e+00 6.976328e-01 8.168747e-01 -9.572711e-02 8.341576e-02 -6.893373e-02 -1.925763e-01 -6.348961e-01 -3.650839e-01 -2.656370e-01 -3.290191e-03 7.725438e-02 1.697337e-01 2.019738e-01 -7.131734e-02 -1.259564e-01 1.832220e-02
<VARIANCE> 39
 2.537697e+01 4.732792e+01 2.360205e+01 5.255007e+01 4.044426e+01 3.234156e+01 3.946430e+01 3.308463e+01 3.516294e+01 3.771696e+01 3.419059e+01 2.865249e+01 2.770166e-02 1.508319e+00 2.067116e+00 2.894438e+00 2.299283e+00 2.063837e+00 3.184265e+00 2.572710e+00 1.952092e+00 2.504223e+00 2.975812e+00 2.853084e+00 3.669533e+00 3.694311e-03 2.051923e-01 6.194740e-01 4.539128e-01 7.552582e-01 4.880943e-01 5.097472e-01 6.177467e-01 4.488515e-01 5.246622e-01 6.091958e-01 5.904005e-01 3.960500e-01 7.432494e-04
<GCONST> 1.004129e+02
<MIXTURE> 3 1.927376e-01
<MEAN> 39
 -3.033620e+00 7.015490e+00 2.829335e+00 3.394828e+00 2.647204e+00 1.466683e+00 -1.010012e+00 1.890334e+00 1.836414e+00 -5.109586e-01 2.963276e+00 8.972787e-01 3.793150e-01 -2.015110e+00 -2.731648e+00 -1.188377e+00 -7.480577e-03 -2.106104e-01 4.787349e-01 6.164438e-01 7.273985e-01 1.151259e+00 1.137696e+00 7.652469e-01 8.966628e-01 -1.082451e-01 7.481469e-02 -1.010003e-01 -1.166970e-01 -5.338883e-01 -2.950510e-01 -1.928661e-01 1.862081e-02 1.351334e-02 1.239901e-01 1.664548e-01 -1.098850e-01 -1.603494e-01 1.816641e-02
<VARIANCE> 39
 2.432618e+01 4.063913e+01 2.085639e+01 4.784577e+01 3.868202e+01 3.226717e+01 3.431068e+01 3.090251e+01 3.567471e+01 3.913505e+01 3.278879e+01 2.995045e+01 2.561651e-02 1.272696e+00 1.732263e+00 2.467520e+00 1.940218e+00 2.006365e+00 2.811723e+00 2.342124e+00 2.061507e+00 2.523232e+00 2.556793e+00 2.849296e+00 3.788699e+00 2.547835e-03 1.878117e-01 4.309748e-01 4.096683e-01 6.945326e-01 4.569070e-01 5.711508e-01 4.990735e-01 4.145152e-01 4.916469e-01 5.803596e-01 5.609605e-01 3.941671e-01 6.609656e-04
<GCONST> 9.719854e+01
<MIXTURE> 4 3.159491e-01
<MEAN> 39
 4.210396e-01 1.086346e+00 1.352026e+00 -2.605716e+00 -3.012182e+00 -1.612840e+00 4.854676e-01 2.056505e-01 -6.101457e-01 -6.151685e-01 -5.203862e-01 -2.940297e-01 8.116022e-01 1.205678e-01 -7.194400e-01 -1.557740e+00 7.282468e-01 3.265043e-01 -1.304740e+00 2.437990e-01 2.256229e-01 1.343260e-01 4.546448e-01 1.026491e-01 -3.279381e-02 1.611874e-02 -1.781684e-01 4.483171e-01 -4.326501e-01 -5.875274e-01 2.996610e-01 -2.160720e-01 -2.865008e-01 2.970282e-02 1.418574e-01 7.857285e-02 -3.781090e-02 -1.587814e-01 7.736303e-03
<VARIANCE> 39
 1.357636e+01 8.816132e+01 3.091250e+01 3.450520e+01 4.808619e+01 6.673491e+01 5.796086e+01 3.827940e+01 5.219453e+01 3.601436e+01 4.551277e+01 4.233162e+01 1.214309e-02 2.768312e+00 1.349750e+00 2.743302e+00 5.609802e+00 3.831840e+00 2.869303e+00 4.304388e+00 5.109440e+00 4.513193e+00 3.665571e+00 3.591180e+00 2.949515e+00 6.377695e-04 9.175746e-02 3.854845e-01 3.465114e-01 5.220769e-01 9.855749e-01 5.865635e-01 1.055045e+00 6.904435e-01 7.467962e-01 6.175033e-01 7.361434e-01 6.872781e-01 9.090672e-05
<GCONST> 1.028778e+02
<TRANSP> 15
 0.000000e+00 1.000000e+00 0.000000e+00 0.000000e+00 0.000000e+00 0.000000e+00 0.000000e+00 0.000000e+00 0.000000e+00 0.000000e+00 0.000000e+00 0.000000e+00 0.000000e+00 0.000000e+00 0.000000e+00
 0.000000e+00 6.223630e-01 3.776370e-01 0.000000e+00 0.000000e+00 0.000000e+00 0.000000e+00 0.000000e+00 0.000000e+00 0.000000e+00 0.000000e+00 0.000000e+00 0.000000e+00 0.000000e+00 0.000000e+00
 0.000000e+00 0.000000e+00 6.133523e-01 3.866477e-01 0.000000e+00 0.000000e+00 0.000000e+00 0.000000e+00 0.000000e+00 0.000000e+00 0.000000e+00 0.000000e+00 0.000000e+00 0.000000e+00 0.000000e+00
 0.000000e+00 0.000000e+00 0.000000e+00 7.206473e-01 2.793526e-01 0.000000e+00 0.000000e+00 0.000000e+00 0.000000e+00 0.000000e+00 0.000000e+00 0.000000e+00 0.000000e+00 0.000000e+00 0.000000e+00
 0.000000e+00 0.000000e+00 0.000000e+00 0.000000e+00 7.408821e-01 2.591179e-01 0.000000e+00 0.000000e+00 0.000000e+00 0.000000e+00 0.000000e+00 0.000000e+00 0.000000e+00 0.000000e+00 0.000000e+00
 0.000000e+00 0.000000e+00 0.000000e+00 0.000000e+00 0.000000e+00 6.519206e-01 3.480795e-01 0.000000e+00 0.000000e+00 0.000000e+00 0.000000e+00 0.000000e+00 0.000000e+00 0.000000e+00 0.000000e+00
 0.000000e+00 0.000000e+00 0.000000e+00 0.000000e+00 0.000000e+00 0.000000e+00 3.445808e-01 6.554192e-01 0.000000e+00 0.000000e+00 0.000000e+00 0.000000e+00 0.000000e+00 0.000000e+00 0.000000e+00
 0.000000e+00 0.000000e+00 0.000000e+00 0.000000e+00 0.000000e+00 0.000000e+00 0.000000e+00 2.204023e-01 7.795977e-01 0.000000e+00 0.000000e+00 0.000000e+00 0.000000e+00 0.000000e+00 0.000000e+00
 0.000000e+00 0.000000e+00 0.000000e+00 0.000000e+00 0.000000e+00 0.000000e+00 0.000000e+00 0.000000e+00 9.008627e-02 9.099137e-01 0.000000e+00 0.000000e+00 0.000000e+00 0.000000e+00 0.000000e+00
 0.000000e+00 0.000000e+00 0.000000e+00 0.000000e+00 0.000000e+00 0.000000e+00 0.000000e+00 0.000000e+00 0.000000e+00 1.493869e-01 8.506131e-01 0.000000e+00 0.000000e+00 0.000000e+00 0.000000e+00
 0.000000e+00 0.000000e+00 0.000000e+00 0.000000e+00 0.000000e+00 0.000000e+00 0.000000e+00 0.000000e+00 0.000000e+00 0.000000e+00 2.303653e-01 7.696347e-01 0.000000e+00 0.000000e+00 0.000000e+00
 0.000000e+00 0.000000e+00 0.000000e+00 0.000000e+00 0.000000e+00 0.000000e+00 0.000000e+00 0.000000e+00 0.000000e+00 0.000000e+00 0.000000e+00 1.399606e-01 8.600394e-01 0.000000e+00 0.000000e+00
 0.000000e+00 0.000000e+00 0.000000e+00 0.000000e+00 0.000000e+00 0.000000e+00 0.000000e+00 0.000000e+00 0.000000e+00 0.000000e+00 0.000000e+00 0.000000e+00 4.007055e-02 9.599295e-01 0.000000e+00
 0.000000e+00 0.000000e+00 0.000000e+00 0.000000e+00 0.000000e+00 0.000000e+00 0.000000e+00 0.000000e+00 0.000000e+00 0.000000e+00 0.000000e+00 0.000000e+00 0.000000e+00 1.018165e-01 8.981835e-01
 0.000000e+00 0.000000e+00 0.000000e+00 0.000000e+00 0.000000e+00 0.000000e+00 0.000000e+00 0.000000e+00 0.000000e+00 0.000000e+00 0.000000e+00 0.000000e+00 0.000000e+00 0.000000e+00 0.000000e+00
<ENDHMM>
~h "#u"
<BEGINHMM>
<NUMSTATES> 15
<STATE> 2
<NUMMIXES> 4
<MIXTURE> 1 2.939468e-01
<MEAN> 39
 6.703456e+00 -5.597292e+00 -5.609599e+00 3.343451e+00 -2.893667e+00 -1.119636e+01 -2.197659e+00 5.640786e+00 8.766109e-01 -2.209043e+00 -3.762464e+00 -1.473875e+00 8.776646e-01 1.692122e+00 5.022346e-01 -1.935197e+00 2.433217e-01 2.948649e+00 3.024250e-01 -2.674892e+00 -3.318127e-01 1.708746e+00 1.080387e+00 -4.142771e-01 -6.852828e-01 -8.712241e-03 -1.917012e-01 4.116997e-01 3.504550e-01 -9.512840e-01 -2.453779e-02 1.215745e+00 7.193778e-02 -1.071044e+00 -1.578787e-01 6.251729e-01 2.675671e-01 -1.787369e-01 -9.555867e-05
<VARIANCE> 39
 1.513844e+01 2.308830e+01 2.442688e+01 1.732816e+01 3.481458e+01 2.990355e+01 5.112681e+01 4.346902e+01 3.574360e+01 4.298398e+01 4.320765e+01 4.701567e+01 6.101577e-03 4.619490e-01 7.605377e-01 1.698422e+00 2.613482e+00 2.127992e+00 4.473689e+00 2.725520e+00 4.939545e+00 2.476876e+00 3.471742e+00 2.164573e+00 3.204772e+00 1.395678e-04 8.008626e-02 1.745318e-01 2.434479e-01 4.698562e-01 6.098279e-01 4.056450e-01 1.034397e+00 5.597963e-01 8.636023e-01 4.651716e-01 5.522570e-01 4.685892e-01 1.730742e-05
<GCONST> 8.699007e+01
<MIXTURE> 2 2.564614e-01
<MEAN> 39
 9.569506e+00 -2.160423e-01 -8.109389e+00 -2.268528e+00 3.097036e+00 -8.910781e-01 -7.607290e-01 -3.424681e-01 1.345036e+00 3.689147e+00 1.418252e+00 -7.471061e-01 7.457893e-01 8.311896e-01 8.182781e-01 -2.350853e-01 -6.194624e-01 -3.903685e-01 4.460289e-01 7.920964e-02 -4.968922e-01 -6.559250e-01 3.392934e-01 7.661725e-01 3.085792e-01 1.390290e-02 -1.579225e-01 -1.143767e-01 3.759392e-02 1.022056e-01 -1.641435e-01 -1.316583e-01 1.945037e-02 5.987999e-02 -2.652350e-01 -3.816160e-01 -1.766797e-01 1.285090e-01 2.331143e-03
<VARIANCE> 39
 1.642288e+01 2.870039e+01 3.383583e+01 2.418497e+01 2.757826e+01 3.017633e+01 3.843077e+01 2.978379e+01 2.947918e+01 3.011365e+01 4.029468e+01 3.261405e+01 2.052293e-02 6.038929e-01 6.871274e-01 1.455825e+00 1.440894e+00 1.830973e+00 1.675166e+00 2.002204e+00 2.166182e+00 2.037109e+00 2.714394e+00 2.231789e+00 2.965325e+00 1.117246e-03 9.439684e-02 1.291004e-01 2.374779e-01 2.246363e-01 3.144384e-01 2.844909e-01 4.215187e-01 4.145180e-01 4.364388e-01 3.745428e-01 4.663630e-01 5.476027e-01 1.241130e-04
<GCONST> 8.397519e+01
<MIXTURE> 3 2.226390e-01
<MEAN> 39
 1.244493e+01 3.401031e+00 -8.193861e+00 -5.116323e+00 2.851148e+00 1.220721e+00 -2.495917e+00 -2.436092e-01 -1.799958e+00 4.693268e+00 2.725342e+00 1.399751e-01 7.351788e-01 7.683016e-01 2.938458e-01 -1.409953e+00 -6.633076e-02 9.577885e-02 -9.071876e-02 5.538687e-02 -7.117204e-02 -3.886394e-01 5.020374e-01 5.613154e-01 2.569023e-01 5.844892e-02 -7.568871e-01 -2.788690e-01 5.374262e-01 4.149874e-01 -3.866341e-02 -7.482322e-02 2.496746e-01 -5.816718e-02 2.382169e-01 -2.948597e-01 -1.590700e-01 4.880655e-02 -2.425513e-02
<VARIANCE> 39
 1.838818e+01 3.511447e+01 2.765596e+01 2.454034e+01 2.532428e+01 2.014134e+01 2.646316e+01 2.553271e+01 3.368224e+01 2.338714e+01 2.378660e+01 1.887464e+01 1.319661e-02 1.282746e+00 1.022464e+00 1.955865e+00 1.544909e+00 1.399029e+00 1.819107e+00 1.975783e+00 2.431530e+00 2.104475e+00 2.274266e+00 2.246857e+00 2.015752e+00 1.142376e-03 2.761096e-01 1.634026e-01 4.009404e-01 3.487280e-01 2.213777e-01 2.930884e-01 3.785219e-01 4.108539e-01 4.882061e-01 3.126966e-01 2.887020e-01 3.624319e-01 3.752139e-04
<GCONST> 8.436156e+01
<MIXTURE> 4 2.269506e-01
<MEAN> 39
 1.072541e+01 1.832343e-01 -8.892669e+00 -5.801607e+00 -1.954034e+00 -2.027871e+00 -9.662990e-01 -2.245568e+00 -2.001511e+00 -2.405755e-01 -1.522875e+00 -1.489285e+00 8.356495e-01 3.546520e-01 -6.359759e-01 -5.005335e-01 2.930002e-01 -2.782632e-01 -7.860416e-01 -5.603554e-01 -4.195390e-01 -5.314983e-01 -8.964736e-01 -1.401485e+00 -1.669621e+00 3.976369e-02 -5.438547e-01 1.344441e-02 6.827420e-01 5.050799e-01 4.085230e-01 3.926443e-01 1.695537e-01 3.667931e-01 4.303701e-01 3.500537e-01 3.379112e-01 1.613351e-01 -2.492045e-02
<VARIANCE> 39
 3.170000e+01 3.323335e+01 2.905593e+01 2.508639e+01 2.705657e+01 3.251764e+01 2.913550e+01 3.222410e+01 2.979093e+01 3.031724e+01 4.210244e+01 4.945375e+01 9.388833e-03 9.416321e-01 1.405891e+00 2.001960e+00 2.505848e+00 1.785183e+00 2.266424e+00 2.918992e+00 2.540612e+00 2.956010e+00 3.504181e+00 3.053219e+00 3.419288e+00 8.300607e-04 3.705614e-01 2.399680e-01 4.615739e-01 4.056700e-01 3.310161e-01 4.015395e-01 4.939215e-01 4.742263e-01 4.268948e-01 4.507222e-01 6.131483e-01 5.898291e-01 3.932676e-04
<GCONST> 9.344489e+01
<STATE> 3
<NUMMIXES> 4
<MIXTURE> 1 2.829825e-01
<MEAN> 39
 1.009395e+01 -2.534063e+00 -9.464734e+00 -4.356921e-02 3.355328e+00 -3.916819e+00 -5.833515e+00 -1.253511e+00 2.758290e+00 4.270721e+00 -2.397485e+00 -5.040100e+00 8.634883e-01 9.398599e-01 9.317489e-01 -1.268312e-01 -9.401436e-01 6.533313e-01 1.960354e+00 2.569985e-01 -1.423480e+00 -5.980360e-01 1.457399e+00 1.443789e+00 1.257301e-01 -8.891817e-03 -2.056176e-01 -4.324659e-02 3.604177e-01 -5.039249e-03 -5.449030e-01 -3.732469e-02 6.888593e-01 2.445360e-01 -5.295036e-01 -4.706085e-01 2.206706e-01 4.394652e-01 -4.680531e-04
<VARIANCE> 39
 1.455144e+01 2.446947e+01 2.219117e+01 2.077693e+01 2.370035e+01 3.113690e+01 2.709678e+01 3.278764e+01 2.874629e+01 3.131599e+01 3.199371e+01 3.436889e+01 5.633296e-03 2.931511e-01 5.788867e-01 1.058707e+00 1.472339e+00 1.767361e+00 2.158636e+00 2.230716e+00 2.723129e+00 2.246135e+00 2.115444e+00 2.229289e+00 2.786035e+00 1.237379e-04 4.692962e-02 9.778644e-02 1.771088e-01 2.536002e-01 3.581694e-01 3.599268e-01 3.937543e-01 3.621478e-01 4.136160e-01 4.104238e-01 4.162246e-01 3.292395e-01 1.115962e-05
<GCONST> 7.425868e+01
<MIXTURE> 2 1.762149e-01
<MEAN> 39
 2.460238e+00 -5.855001e-01 -2.546404e+00 1.680051e-01 -9.515450e-01 -1.050682e+00 -9.150877e-01 -1.101861e+00 -6.961880e-01 1.454036e-01 -3.177047e-03 -8.826939e-01 9.571412e-01 2.464290e-02 1.026905e-01 2.360020e-03 -3.952228e-02 -2.005572e-02 1.728053e-01 8.553404e-02 7.400838e-02 2.736565e-03 1.065956e-02 1.913127e-01 6.915727e-02 -2.986623e-03 -8.428952e-03 2.361265e-02 -1.789871e-02 -6.676870e-02 -5.090309e-03 -1.980931e-02 3.775576e-03 -6.887780e-03 -3.388743e-04 -4.729147e-02 -3.175784e-02 -1.921759e-02 -1.058899e-03
<VARIANCE> 39
 3.462440e+00 9.630413e+00 1.405739e+01 9.000218e+00 1.010473e+01 1.208169e+01 1.331953e+01 1.413805e+01 1.634089e+01 1.769497e+01 1.227610e+01 1.715853e+01 1.490626e-03 1.300237e-01 4.104228e-01 4.663225e-01 6.088541e-01 8.209928e-01 9.322755e-01 1.151538e+00 1.269974e+00 1.286816e+00 1.062771e+00 1.055848e+00 1.012426e+00 3.991036e-05 2.157088e-02 6.160821e-02 7.321908e-02 9.994232e-02 1.377440e-01 1.674219e-01 2.079230e-01 2.156403e-01 2.218864e-01 1.897495e-01 1.782013e-01 1.487795e-01 4.291313e-06
<GCONST> 4.317795e+01
<MIXTURE> 3 1.899040e-01
<MEAN> 39
 2.408531e+00 6.035612e-01 -3.250338e+00 -5.145946e-01 -7.409681e-01 -1.202646e-01 3.675985e-01 -9.464069e-01 -5.896131e-01 -5.770673e-01 6.997256e-01 4.469813e-01 9.482086e-01 1.854911e-03 6.841560e-02 2.975239e-02 -3.089925e-02 3.515033e-02 1.181164e-01 1.160088e-02 -2.657087e-02 1.033361e-01 7.348152e-02 1.294481e-02 -4.541353e-02 -3.747134e-03 -7.806882e-04 -1.567927e-02 2.141981e-03 -3.092073e-03 3.502706e-03 -1.946887e-02 -3.232467e-02 -6.283407e-03 -2.050760e-02 4.340889e-02 -2.775284e-02 -1.663416e-02 -5.309226e-04
<VARIANCE> 39
 2.137473e+00 6.397008e+00 9.548383e+00 6.050898e+00 6.044128e+00 7.328679e+00 1.091853e+01 8.337984e+00 1.137746e+01 1.079365e+01 8.732258e+00 1.265719e+01 1.643987e-03 9.339080e-02 2.297706e-01 2.896310e-01 3.510738e-01 4.434513e-01 4.971227e-01 6.010131e-01 6.223085e-01 6.470432e-01 6.693933e-01 6.696650e-01 6.457571e-01 3.754082e-05 1.387815e-02 3.586705e-02 5.650888e-02 5.692156e-02 7.686333e-02 8.531363e-02 1.010810e-01 9.016706e-02 1.039875e-01 1.013129e-01 1.173336e-01 9.976661e-02 3.730628e-06
<GCONST> 2.469891e+01
<MIXTURE> 4 3.508965e-01
<MEAN> 39
 9.772284e+00 3.980195e-01 -7.653958e+00 -2.726796e+00 7.722312e-01 -1.707719e+00 -1.725715e+00 -1.671893e+00 -1.535835e+00 1.548957e+00 3.642306e-01 -1.408195e+00 8.704862e-01 3.913877e-02 -6.068403e-02 -5.279222e-03 3.053862e-01 1.955188e-02 5.742610e-02 5.179244e-02 -2.443489e-01 -1.398687e-01 -2.711560e-01 -2.348062e-02 -7.678847e-02 1.165952e-02 -7.192907e-02 2.390775e-02 1.745219e-01 -6.266774e-03 3.362956e-02 1.289881e-01 1.745681e-02 -1.758344e-02 1.319280e-01 3.792254e-02 2.697153e-02 9.708001e-02 -7.831082e-03
<VARIANCE> 39
 3.109625e+01 3.513733e+01 3.094944e+01 2.185075e+01 2.713683e+01 2.626383e+01 2.491788e+01 2.718139e+01 2.775563e+01 2.877627e+01 3.421564e+01 4.070373e+01 7.675291e-03 4.704565e-01 8.544030e-01 1.244657e+00 1.238166e+00 1.252917e+00 1.340494e+00 1.904389e+00 2.123956e+00 1.953754e+00 2.003426e+00 2.164934e+00 2.699209e+00 2.618859e-04 8.526037e-02 1.442404e-01 2.297937e-01 2.221134e-01 1.820296e-01 2.522190e-01 3.369752e-01 4.322203e-01 3.428426e-01 3.205085e-01 4.150738e-01 4.850687e-01 4.930684e-05
<GCONST> 7.753939e+01
<STATE> 4
<NUMMIXES> 4
<MIXTURE> 1 2.304338e-01
<MEAN> 39
 1.226512e+01 3.217583e-01 -9.147737e+00 -2.315452e+00 3.852336e+00 1.188259e+00 -2.549222e+00 -2.843855e+00 -7.883384e-01 6.806148e+00 2.741613e+00 -9.195284e-01 8.325671e-01 4.651652e-01 6.973727e-01 4.123697e-01 -4.540481e-01 -3.644069e-01 1.013831e+00 1.101927e+00 -2.421278e-01 -8.861114e-01 -2.208196e-01 1.193808e+00 1.054581e+00 -9.157619e-03 -1.795571e-01 -1.547130e-01 3.526424e-02 1.641214e-01 -1.986644e-01 -4.480488e-01 -6.260124e-02 4.111950e-01 1.080945e-01 -4.696634e-01 -3.906751e-01 -7.688753e-02 -1.498563e-04
<VARIANCE> 39
 1.072419e+01 2.281762e+01 2.090344e+01 1.699255e+01 2.176140e+01 2.413984e+01 2.418133e+01 2.464559e+01 2.853929e+01 1.883650e+01 2.268082e+01 3.258561e+01 5.480958e-03 1.772459e-01 4.953279e-01 8.279222e-01 1.277893e+00 1.010100e+00 1.353261e+00 1.295157e+00 1.455966e+00 1.947576e+00 1.739783e+00 1.460978e+00 1.534337e+00 1.263197e-04 3.004725e-02 7.532872e-02 1.030564e-01 1.778399e-01 1.712831e-01 2.743021e-01 2.484995e-01 2.951930e-01 2.718872e-01 2.446608e-01 2.820628e-01 2.598321e-01 1.464120e-05
<GCONST> 6.279557e+01
<MIXTURE> 2 2.681762e-01
<MEAN> 39
 1.181427e+01 2.825376e+00 -9.264360e+00 -2.594992e+00 2.594827e+00 7.904622e-01 -1.693043e-01 -1.058058e+00 -1.391136e+00 3.614302e+00 3.211006e+00 1.245362e+00 8.302275e-01 1.493677e-01 2.002715e-01 1.824683e-01 1.897914e-02 -1.873441e-02 2.233935e-01 1.637645e-01 -4.524709e-02 1.230386e-01 -5.115514e-02 1.099294e-01 1.161027e-01 -5.433791e-03 -3.628559e-02 -6.419620e-02 1.129478e-02 1.518947e-02 9.680828e-03 -3.563082e-03 -9.033493e-02 -1.420902e-02 4.430417e-02 6.630532e-02 -6.118723e-02 -1.173490e-01 -1.021844e-03
<VARIANCE> 39
 1.023467e+01 2.449790e+01 2.228792e+01 2.105995e+01 2.257560e+01 1.689287e+01 2.214376e+01 2.238910e+01 2.135111e+01 2.367220e+01 2.243748e+01 2.476500e+01 5.667734e-03 1.520809e-01 2.991566e-01 4.694036e-01 4.531396e-01 4.560353e-01 6.693820e-01 8.031139e-01 8.365360e-01 8.765067e-01 8.579822e-01 9.319217e-01 8.480803e-01 7.876134e-05 1.794548e-02 4.091074e-02 6.234803e-02 8.116806e-02 8.308903e-02 1.151789e-01 1.451260e-01 1.465702e-01 1.493952e-01 1.464968e-01 1.706262e-01 1.514428e-01 7.254209e-06
<GCONST> 4.636959e+01
<MIXTURE> 3 2.681691e-01
<MEAN> 39
 1.181445e+01 2.827397e+00 -9.266263e+00 -2.599097e+00 2.595453e+00 7.886187e-01 -1.659476e-01 -1.059061e+00 -1.394781e+00 3.614327e+00 3.211101e+00 1.248935e+00 8.302349e-01 1.494236e-01 2.003606e-01 1.825929e-01 1.903786e-02 -1.886501e-02 2.232641e-01 1.640913e-01 -4.497710e-02 1.229042e-01 -5.151617e-02 1.097728e-01 1.165786e-01 -5.430378e-03 -3.629487e-02 -6.429410e-02 1.134367e-02 1.528837e-02 9.725985e-03 -3.465541e-03 -9.062250e-02 -1.419957e-02 4.452061e-02 6.637884e-02 -6.122591e-02 -1.175543e-01 -1.023151e-03
<VARIANCE> 39
 1.023021e+01 2.450340e+01 2.229054e+01 2.105686e+01 2.258056e+01 1.689094e+01 2.215518e+01 2.238065e+01 2.134541e+01 2.367367e+01 2.243467e+01 2.475578e+01 5.668115e-03 1.521635e-01 2.992921e-01 4.694533e-01 4.530816e-01 4.560858e-01 6.693981e-01 8.033895e-01 8.365389e-01 8.765165e-01 8.583546e-01 9.320111e-01 8.483495e-01 7.881769e-05 1.795306e-02 4.091896e-02 6.235040e-02 8.116995e-02 8.309966e-02 1.151960e-01 1.451624e-01 1.465259e-01 1.494011e-01 1.465589e-01 1.706524e-01 1.514220e-01 7.263424e-06
<GCONST> 4.637468e+01
<MIXTURE> 4 2.332171e-01
<MEAN> 39
 1.131136e+01 -1.391822e+00 -9.202699e+00 -4.983128e+00 -7.243897e-01 -4.252532e-01 -1.402035e+00 -4.532119e+00 -5.692077e+00 -1.037717e+00 1.017718e-02 -1.257963e+00 8.673237e-01 1.127727e-01 1.719877e-01 1.058952e-01 -1.689402e-01 -3.688017e-01 -1.456153e-01 1.039112e-01 1.930709e-01 -2.732652e-01 -6.406711e-01 -6.469881e-01 -5.083434e-01 -2.957924e-03 -7.833520e-03 8.995067e-04 1.219318e-01 3.150438e-01 2.063587e-01 -3.525357e-02 -1.079931e-01 2.823450e-01 5.882208e-01 3.151347e-01 -5.380039e-02 -9.313879e-02 -2.234761e-03
<VARIANCE> 39
 1.462178e+01 2.730252e+01 2.593985e+01 1.839355e+01 2.615187e+01 3.150674e+01 2.590977e+01 3.197769e+01 2.381412e+01 3.269746e+01 3.472276e+01 4.983542e+01 5.605057e-03 4.154614e-01 8.057930e-01 1.143426e+00 1.105230e+00 1.416579e+00 1.456272e+00 1.805347e+00 2.335063e+00 2.250498e+00 2.054880e+00 2.260320e+00 3.368636e+00 1.749231e-04 5.319585e-02 1.176240e-01 1.783969e-01 1.992475e-01 2.185468e-01 3.171234e-01 3.799394e-01 3.969774e-01 3.100117e-01 3.281514e-01 3.893904e-01 4.972916e-01 1.788724e-05
<GCONST> 7.458038e+01
<STATE> 5
<NUMMIXES> 4
<MIXTURE> 1 3.449226e-01
<MEAN> 39
 1.223350e+01 2.646036e+00 -4.786748e+00 -2.208823e+00 -1.726337e+00 1.904086e-01 1.026873e+00 2.087770e+00 -8.779063e-01 -1.592806e-01 -1.258439e+00 -1.718264e+00 7.691634e-01 1.370396e-01 2.527933e-01 6.384597e-02 8.657014e-02 2.435825e-01 3.903728e-01 -5.588058e-02 9.988932e-02 2.516507e-01 3.613347e-01 1.390818e-01 -8.036220e-02 -8.004148e-03 -4.806264e-02 -7.221067e-02 -2.464331e-01 -4.638862e-02 1.480420e-01 3.965406e-02 -2.018132e-01 -3.646498e-01 -7.774601e-02 1.585675e-01 2.006843e-01 -1.511144e-02 1.980271e-04
<VARIANCE> 39
 1.517144e+01 2.861584e+01 2.406800e+01 1.623784e+01 1.808058e+01 2.257589e+01 1.960940e+01 2.482775e+01 2.862136e+01 2.732351e+01 3.198904e+01 4.641903e+01 8.796293e-03 2.101751e-01 5.761667e-01 9.743822e-01 9.353259e-01 1.071982e+00 1.300879e+00 1.183444e+00 1.685101e+00 1.379511e+00 1.569109e+00 1.833498e+00 1.807448e+00 1.511187e-04 3.083828e-02 1.179513e-01 1.161291e-01 1.473811e-01 1.856696e-01 2.212723e-01 2.396546e-01 2.516637e-01 2.778956e-01 3.354186e-01 2.671398e-01 3.318060e-01 1.212638e-05
<GCONST> 6.534099e+01
<MIXTURE> 2 2.123083e-01
<MEAN> 39
 1.337973e+01 2.609444e+00 -8.112767e+00 -2.226825e+00 2.422298e+00 3.468114e+00 -1.421576e-01 -2.214274e+00 -1.583222e+00 4.406887e+00 5.494993e+00 2.522892e+00 7.834592e-01 -1.190115e-01 -2.048999e-01 2.025672e-01 4.494114e-01 4.784568e-01 1.031643e-01 -4.617820e-01 -7.258147e-02 6.701939e-01 7.037101e-01 1.861240e-01 -3.892833e-01 -7.647618e-03 -1.437689e-01 -1.690909e-01 3.423465e-02 2.558771e-01 9.671144e-02 -4.543538e-01 -3.392019e-01 2.173012e-01 4.237797e-01 9.184451e-02 -4.508749e-01 -3.755053e-01 -2.584695e-04
<VARIANCE> 39
 7.913127e+00 3.087640e+01 2.623830e+01 1.973391e+01 2.217754e+01 2.099944e+01 2.586055e+01 2.318655e+01 2.694740e+01 2.309507e+01 2.093146e+01 2.472585e+01 7.126502e-03 2.668888e-01 7.372707e-01 1.059069e+00 8.785588e-01 1.139841e+00 1.371234e+00 1.675231e+00 1.702582e+00 1.588250e+00 1.638005e+00 1.707771e+00 1.362602e+00 1.538109e-04 4.223944e-02 8.842833e-02 1.331321e-01 1.554525e-01 1.733790e-01 2.652926e-01 2.412174e-01 2.797818e-01 2.927427e-01 2.848738e-01 3.143918e-01 2.572848e-01 1.387318e-05
<GCONST> 6.509442e+01
<MIXTURE> 3 2.122576e-01
<MEAN> 39
 1.337575e+01 2.609310e+00 -8.108500e+00 -2.225052e+00 2.423003e+00 3.473687e+00 -1.403808e-01 -2.216752e+00 -1.577773e+00 4.406026e+00 5.496756e+00 2.524702e+00 7.834687e-01 -1.185737e-01 -2.032755e-01 2.036561e-01 4.478307e-01 4.759733e-01 1.036100e-01 -4.591448e-01 -7.207000e-02 6.687493e-01 7.013294e-01 1.848778e-01 -3.875501e-01 -7.656061e-03 -1.431877e-01 -1.686219e-01 3.386682e-02 2.550538e-01 9.688063e-02 -4.531514e-01 -3.384787e-01 2.164211e-01 4.222649e-01 9.267937e-02 -4.491388e-01 -3.745610e-01 -2.570243e-04
<VARIANCE> 39
 7.913605e+00 3.087678e+01 2.627669e+01 1.973657e+01 2.213529e+01 2.097726e+01 2.587011e+01 2.316072e+01 2.693961e+01 2.307890e+01 2.089410e+01 2.470321e+01 7.123861e-03 2.663073e-01 7.346684e-01 1.055754e+00 8.769651e-01 1.135180e+00 1.368562e+00 1.671486e+00 1.697133e+00 1.584876e+00 1.633693e+00 1.705008e+00 1.360473e+00 1.531007e-04 4.210823e-02 8.814453e-02 1.326917e-01 1.550870e-01 1.729008e-01 2.645457e-01 2.411401e-01 2.787166e-01 2.927303e-01 2.843161e-01 3.137580e-01 2.570767e-01 1.381149e-05
<GCONST> 6.502258e+01
<MIXTURE> 4 2.305098e-01
<MEAN> 39
 1.164312e+01 -2.248145e+00 -9.404586e+00 -3.853757e+00 -2.012721e+00 -1.853601e+00 -3.182223e+00 -4.601704e+00 -2.612309e+00 -3.103013e+00 -5.253357e+00 -9.560458e+00 8.580960e-01 2.003210e-01 -2.276897e-01 2.049497e-01 6.940997e-01 2.017481e-01 5.687587e-02 -4.501489e-01 1.590423e-01 6.839983e-01 5.915561e-01 1.108885e-01 -3.500162e-01 -3.497565e-03 3.212518e-02 3.596237e-02 1.811720e-01 3.120595e-01 3.092784e-01 1.578330e-01 1.656634e-01 3.083657e-01 3.040062e-01 3.509644e-01 4.665706e-01 5.828810e-01 -1.306484e-03
<VARIANCE> 39
 1.220186e+01 2.941982e+01 2.330808e+01 2.612265e+01 2.914237e+01 3.580682e+01 2.701056e+01 2.840989e+01 3.374395e+01 3.363678e+01 4.031313e+01 4.175291e+01 5.995708e-03 3.933007e-01 1.070894e+00 1.257379e+00 1.427558e+00 1.623768e+00 1.948541e+00 2.297416e+00 2.624517e+00 1.975253e+00 2.122175e+00 2.587173e+00 3.528610e+00 1.024597e-04 3.884923e-02 1.776331e-01 1.755131e-01 2.634210e-01 2.993999e-01 3.526624e-01 4.193510e-01 5.140213e-01 3.734571e-01 3.590273e-01 3.553379e-01 4.033659e-01 9.735938e-06
<GCONST> 7.671439e+01
<STATE> 6
<NUMMIXES> 4
<MIXTURE> 1 4.864283e-01
<MEAN> 39
 1.073728e+01 8.930072e-01 -6.662740e+00 -1.596609e+00 1.224752e+00 8.377790e-01 -2.136185e+00 -1.647039e+00 9.261526e-02 2.204720e+00 1.237766e+00 -3.383924e+00 8.047268e-01 1.258495e-01 2.377247e-01 1.880718e-02 2.519235e-01 3.136399e-01 2.708409e-01 1.509074e-01 9.556988e-02 2.536862e-01 4.115983e-01 5.640213e-01 3.508288e-01 -1.024535e-02 1.495897e-02 4.080177e-02 4.896370e-02 -3.905931e-02 9.353950e-03 3.133858e-02 1.170549e-01 9.973446e-02 1.335984e-02 2.400562e-02 1.476851e-02 9.468581e-02 -1.648708e-03
<VARIANCE> 39
 2.209026e+01 3.319865e+01 2.783087e+01 1.925923e+01 1.939201e+01 2.343234e+01 1.962868e+01 2.138382e+01 2.690438e+01 2.213092e+01 3.162485e+01 4.202961e+01 1.061087e-02 2.036822e-01 3.759611e-01 6.113035e-01 7.219116e-01 8.225408e-01 9.098054e-01 1.268731e+00 1.425092e+00 1.473179e+00 1.230017e+00 1.493391e+00 1.576369e+00 1.020787e-04 3.981535e-02 6.658686e-02 1.056595e-01 1.449822e-01 1.370784e-01 1.845226e-01 2.338003e-01 2.604971e-01 2.783466e-01 2.127705e-01 2.877567e-01 3.174253e-01 8.290826e-06
<GCONST> 6.142202e+01
<MIXTURE> 2 1.480547e-01
<MEAN> 39
 1.302915e+01 -1.121516e+00 -7.185480e+00 4.070099e-02 5.657477e+00 7.025400e-01 -2.669497e+00 -3.318595e+00 2.008158e+00 7.663938e+00 2.710699e+00 -3.016193e+00 8.260019e-01 -3.128541e-01 -3.094430e-01 2.542897e-01 1.044515e+00 2.680516e-01 -9.989585e-01 -8.990902e-01 9.708673e-01 1.506718e+00 4.717645e-01 -1.047018e+00 -7.146121e-01 -4.403154e-03 -1.825462e-01 -1.059690e-01 1.343579e-01 2.395116e-01 -3.347924e-01 -6.426609e-01 -9.055281e-03 6.671662e-01 6.746036e-02 -6.395555e-01 -3.909508e-01 1.777052e-01 1.492516e-04
<VARIANCE> 39
 8.740340e+00 3.039892e+01 2.179445e+01 1.919100e+01 1.855118e+01 2.725998e+01 2.238181e+01 2.632773e+01 2.926938e+01 2.143781e+01 3.022256e+01 2.873508e+01 4.765289e-03 2.557836e-01 4.957952e-01 7.884140e-01 8.311265e-01 8.550096e-01 1.033693e+00 1.714804e+00 1.313493e+00 1.675357e+00 1.707791e+00 1.343404e+00 2.181613e+00 8.218207e-05 3.415119e-02 8.793046e-02 1.447935e-01 1.617995e-01 1.495112e-01 2.695068e-01 2.599880e-01 3.205961e-01 2.848289e-01 2.606790e-01 2.533795e-01 2.797866e-01 5.453393e-06
<GCONST> 6.205873e+01
<MIXTURE> 3 1.528500e-01
<MEAN> 39
 1.291809e+01 -6.156341e-01 -7.745923e+00 -2.690152e-01 5.994542e+00 3.389628e-01 -2.783903e+00 -3.144032e+00 1.575828e+00 8.082176e+00 2.574886e+00 -2.898283e+00 8.278783e-01 -3.389232e-01 -3.786689e-01 2.436588e-01 1.092137e+00 2.227238e-01 -1.009532e+00 -9.947833e-01 9.708228e-01 1.588952e+00 4.229583e-01 -1.145373e+00 -8.316894e-01 -4.206419e-03 -1.894967e-01 -1.184861e-01 1.911052e-01 2.583915e-01 -3.497821e-01 -6.165739e-01 5.682958e-03 6.791826e-01 9.063496e-02 -6.706887e-01 -3.519291e-01 1.894467e-01 1.178259e-04
<VARIANCE> 39
 8.466969e+00 2.960757e+01 2.149135e+01 1.903055e+01 1.900110e+01 2.458481e+01 2.289115e+01 2.599389e+01 2.974859e+01 2.119203e+01 2.772945e+01 2.543356e+01 4.316145e-03 2.333755e-01 4.269084e-01 7.157346e-01 7.492769e-01 7.962098e-01 9.806278e-01 1.607657e+00 1.252034e+00 1.513368e+00 1.656744e+00 1.288922e+00 1.959980e+00 7.285305e-05 3.109436e-02 6.998461e-02 1.344924e-01 1.483300e-01 1.411843e-01 2.362864e-01 2.550824e-01 3.043979e-01 2.815292e-01 2.531085e-01 2.284320e-01 2.613874e-01 5.081995e-06
<GCONST> 5.950121e+01
<MIXTURE> 4 2.126666e-01
<MEAN> 39
 1.248310e+01 1.783936e-01 -9.076851e+00 -5.315933e-01 3.528523e+00 2.158302e+00 -4.805223e+00 -3.803672e+00 4.623944e-01 6.724525e+00 3.110956e+00 -2.068920e+00 7.831215e-01 -6.235519e-01 -7.876194e-01 2.073011e-01 1.696211e+00 1.067527e+00 -1.721863e+00 -1.645356e+00 9.658927e-01 2.476472e+00 9.187987e-01 -1.284769e+00 -1.414895e+00 -3.911634e-03 -3.004453e-01 -8.056415e-02 5.201076e-01 3.042099e-01 -5.107592e-01 -9.716505e-01 5.345824e-01 1.054890e+00 1.370412e-01 -8.559255e-01 -5.721928e-01 2.926074e-01 4.977275e-04
<VARIANCE> 39
 1.115394e+01 3.508184e+01 2.540091e+01 1.966463e+01 2.038448e+01 2.577919e+01 2.817202e+01 2.680655e+01 3.218520e+01 3.379362e+01 4.091468e+01 5.307413e+01 1.083427e-02 3.662983e-01 9.932548e-01 1.756900e+00 1.255702e+00 1.706053e+00 2.232170e+00 2.725965e+00 2.680468e+00 2.336579e+00 2.783517e+00 2.983428e+00 2.956431e+00 2.902223e-04 7.657000e-02 1.764648e-01 2.466610e-01 2.777419e-01 3.373290e-01 4.239151e-01 3.588793e-01 3.583026e-01 4.581522e-01 4.574299e-01 5.349472e-01 5.579416e-01 2.884209e-05
<GCONST> 8.170574e+01
<STATE> 7
<NUMMIXES> 4
<MIXTURE> 1 4.604030e-01
<MEAN> 39
 1.186565e+01 4.946304e+00 -6.217862e+00 -2.069896e+00 2.497169e+00 2.555229e+00 -5.585430e-01 -5.591877e-01 9.500492e-01 4.979837e+00 4.535260e+00 1.036016e+00 7.178377e-01 1.099435e-01 2.882068e-01 2.311190e-01 -2.431625e-02 1.624199e-01 3.864065e-01 1.837783e-01 8.876912e-02 1.369169e-01 2.761979e-01 2.546496e-01 2.919163e-01 -1.517593e-02 -6.963281e-02 -5.340907e-02 1.513954e-01 -4.728165e-02 -4.060721e-03 -1.730379e-02 8.734526e-03 8.730777e-02 -3.981201e-02 -1.377167e-01 -1.400181e-01 -6.298670e-02 -2.085996e-03
<VARIANCE> 39
 1.700475e+01 2.744819e+01 2.628448e+01 1.751094e+01 2.023965e+01 1.728034e+01 1.902251e+01 1.895623e+01 2.472637e+01 2.931794e+01 2.613190e+01 2.114651e+01 1.059998e-02 1.935184e-01 4.519305e-01 5.767553e-01 7.078765e-01 6.416969e-01 7.481161e-01 1.097283e+00 9.997391e-01 1.396045e+00 1.137441e+00 1.256153e+00 1.171078e+00 1.066301e-04 2.496080e-02 5.659035e-02 1.218714e-01 1.163794e-01 1.284283e-01 1.438924e-01 1.794446e-01 2.242496e-01 2.254510e-01 2.269866e-01 2.006097e-01 1.306340e-01 1.224861e-05
<GCONST> 5.583578e+01
<MIXTURE> 2 1.178189e-01
<MEAN> 39
 9.545021e+00 -3.856311e+00 -5.969530e+00 1.169628e+00 1.449642e+00 -3.166715e+00 -4.260242e+00 -7.085157e-02 2.753518e+00 1.068781e+00 -2.998535e+00 -6.042745e+00 8.709418e-01 -2.848744e-01 -1.146893e-01 5.567999e-01 7.870127e-01 -1.664527e-01 -6.852047e-01 2.920285e-01 1.459388e+00 8.202864e-01 -5.585948e-01 -2.267634e-01 8.929161e-01 -5.629153e-03 -1.419092e-01 1.770218e-01 2.008528e-01 -1.817553e-01 -3.560689e-01 4.406551e-02 4.283558e-01 7.812019e-03 -3.708391e-01 -7.948291e-02 3.538501e-01 4.312375e-01 -1.438902e-03
<VARIANCE> 39
 1.899740e+01 2.376824e+01 3.808250e+01 2.136869e+01 2.769443e+01 3.918179e+01 2.978425e+01 3.286359e+01 2.630634e+01 3.515281e+01 4.353368e+01 6.798557e+01 5.030932e-03 4.094153e-01 1.114570e+00 1.302385e+00 2.426979e+00 2.442415e+00 3.063675e+00 2.366007e+00 2.370516e+00 2.207188e+00 4.497375e+00 3.546825e+00 3.689836e+00 1.093991e-04 6.937876e-02 1.592086e-01 2.538746e-01 3.022500e-01 5.529116e-01 4.829481e-01 7.204155e-01 4.050166e-01 3.399981e-01 5.599349e-01 4.921361e-01 6.374139e-01 1.693574e-05
<GCONST> 8.431762e+01
<MIXTURE> 3 1.378440e-01
<MEAN> 39
 1.275356e+01 -3.674934e+00 -6.789144e+00 2.104812e+00 4.716705e+00 -4.686454e+00 -5.140067e+00 -6.153162e-01 3.889765e+00 2.966102e+00 -5.293062e+00 -7.693855e+00 8.197795e-01 -4.255007e-01 -3.924714e-01 7.573164e-01 1.459637e+00 -7.850325e-01 -1.542942e+00 3.409290e-01 2.474215e+00 4.956082e-01 -1.351471e+00 -9.179416e-01 1.177701e+00 -8.274956e-03 -2.491168e-01 7.439945e-02 3.488954e-01 4.021943e-02 -6.617277e-01 -1.783257e-01 7.356731e-01 2.742157e-01 -5.676989e-01 -3.308341e-01 4.243491e-01 5.486198e-01 3.677761e-04
<VARIANCE> 39
 9.486643e+00 1.977132e+01 2.636515e+01 1.805305e+01 1.740656e+01 2.404766e+01 1.780360e+01 2.885000e+01 2.418340e+01 2.746088e+01 3.545006e+01 4.773938e+01 3.605897e-03 3.823529e-01 2.881233e-01 7.259468e-01 8.771920e-01 7.414568e-01 1.315024e+00 2.067386e+00 1.701361e+00 1.711174e+00 1.370780e+00 2.010556e+00 1.926966e+00 7.387244e-05 7.351333e-02 6.120179e-02 1.320314e-01 1.604126e-01 2.357665e-01 2.898036e-01 2.355811e-01 3.023643e-01 2.907733e-01 2.855312e-01 2.362814e-01 3.803401e-01 1.172203e-05
<GCONST> 6.409532e+01
<MIXTURE> 4 2.839341e-01
<MEAN> 39
 1.197032e+01 -4.590561e-01 -8.403348e+00 2.376360e+00 6.396121e+00 -1.736071e+00 -6.605393e+00 -4.326756e-01 5.616922e+00 9.292407e+00 2.998948e-01 -4.758648e+00 7.866167e-01 -9.730718e-01 -8.166595e-01 1.068032e+00 1.991036e+00 -2.963204e-01 -3.121807e+00 -6.514531e-01 3.166451e+00 2.208611e+00 -1.307129e+00 -1.965537e+00 -2.267453e-01 -2.615969e-03 -3.755071e-01 1.820979e-02 8.751978e-01 -1.658312e-01 -1.069642e+00 -3.188513e-01 1.197145e+00 5.332807e-01 -8.959678e-01 -1.061292e+00 3.622912e-01 7.806286e-01 3.407568e-05
<VARIANCE> 39
 1.007014e+01 2.962314e+01 2.238917e+01 1.664828e+01 1.760124e+01 2.311274e+01 2.773658e+01 2.546198e+01 2.934593e+01 2.502685e+01 2.625064e+01 2.908648e+01 1.006867e-02 3.769478e-01 7.937468e-01 1.576941e+00 1.408503e+00 1.705493e+00 2.107041e+00 2.336743e+00 2.199359e+00 2.006066e+00 2.417187e+00 1.849277e+00 2.412945e+00 2.386920e-04 8.353687e-02 2.136921e-01 2.860301e-01 2.974399e-01 3.090309e-01 4.119692e-01 4.123137e-01 3.735813e-01 3.508726e-01 3.915460e-01 4.550916e-01 3.695132e-01 2.757772e-05
<GCONST> 7.705687e+01
<STATE> 8
<NUMMIXES> 4
<MIXTURE> 1 2.618223e-01
<MEAN> 39
 1.105180e+01 -3.917799e+00 -4.155447e+00 5.749682e+00 2.815790e+00 -7.601379e+00 -4.263846e+00 6.248489e+00 5.583722e+00 -2.845155e-01 -6.162897e+00 -2.193825e+00 8.118799e-01 -1.161563e+00 -3.286812e-01 1.907628e+00 1.336698e+00 -2.829610e+00 -2.057301e+00 2.264480e+00 2.497567e+00 -1.186278e+00 -1.910700e+00 6.404476e-01 1.721183e+00 -2.345282e-03 -3.807869e-01 4.550416e-01 6.102391e-01 -8.653182e-01 -7.492098e-01 7.777072e-01 7.591833e-01 -1.042306e+00 -7.299267e-01 4.893534e-01 7.967190e-01 -2.847059e-01 4.673876e-04
<VARIANCE> 39
 1.241975e+01 2.539061e+01 2.475318e+01 1.640577e+01 1.951330e+01 2.769829e+01 2.462822e+01 2.632892e+01 2.625177e+01 3.362886e+01 4.109411e+01 4.345092e+01 7.103769e-03 4.527620e-01 6.524348e-01 1.433400e+00 1.397551e+00 1.709758e+00 2.483526e+00 2.245410e+00 2.271131e+00 1.954990e+00 2.576428e+00 2.246647e+00 2.262956e+00 1.192012e-04 8.706102e-02 1.823803e-01 2.531146e-01 2.804963e-01 3.735591e-01 4.240894e-01 4.056055e-01 4.532325e-01 4.428229e-01 3.723648e-01 3.683415e-01 3.949087e-01 1.457315e-05
<GCONST> 7.709594e+01
<MIXTURE> 2 2.536041e-01
<MEAN> 39
 1.177523e+01 4.852879e+00 -6.555158e+00 -2.292745e+00 2.406168e+00 3.395010e+00 -3.052299e-02 -6.233913e-01 6.679643e-01 4.921858e+00 4.604322e+00 1.399829e+00 7.145302e-01 -1.393435e-02 1.543991e-01 6.354372e-01 -7.851569e-02 2.329147e-01 3.458962e-01 3.180608e-01 3.037411e-01 7.908361e-02 -1.535587e-02 7.760973e-02 1.201707e-01 -1.988957e-02 -1.779484e-01 -1.023853e-01 2.783854e-01 6.143455e-02 7.303987e-02 -8.467837e-02 -2.108587e-02 2.711248e-02 -4.480093e-02 -2.428257e-01 -2.803435e-01 -1.308134e-01 -2.385844e-03
<VARIANCE> 39
 2.151335e+01 2.166444e+01 2.849289e+01 2.339132e+01 2.287675e+01 1.667001e+01 1.870110e+01 2.185177e+01 2.332393e+01 2.542766e+01 2.310539e+01 2.071099e+01 1.147365e-02 2.209154e-01 4.806448e-01 8.807992e-01 7.382088e-01 8.212278e-01 9.681992e-01 1.112596e+00 1.143784e+00 1.681933e+00 1.421119e+00 1.073393e+00 1.115031e+00 1.208122e-04 4.219836e-02 6.204000e-02 1.522119e-01 1.345228e-01 1.577529e-01 1.511802e-01 2.164470e-01 2.486353e-01 2.144080e-01 2.642584e-01 2.326967e-01 1.993637e-01 1.915695e-05
<GCONST> 6.044082e+01
<MIXTURE> 3 1.761056e-01
<MEAN> 39
 1.119634e+01 1.728090e+00 -7.461494e+00 -1.531417e+00 3.802094e-01 9.342505e-01 -1.280469e+00 -4.136303e-01 7.381791e-01 2.537123e+00 1.034155e+00 -2.330648e+00 7.913677e-01 -2.231549e-02 3.792348e-01 4.791598e-01 -2.463021e-01 3.335206e-01 5.263181e-01 2.266104e-01 5.528911e-01 2.373367e-01 1.972138e-01 3.197425e-01 6.705218e-01 -1.799157e-02 -1.797259e-01 4.597008e-05 2.954195e-01 -4.532088e-02 1.502846e-01 6.298351e-02 -4.155201e-02 3.639425e-03 -1.036971e-01 -1.019372e-01 -3.821514e-02 5.211552e-02 -4.511331e-03
<VARIANCE> 39
 2.831982e+01 3.603021e+01 3.373986e+01 2.174707e+01 3.189645e+01 2.479106e+01 2.068933e+01 2.200434e+01 2.897372e+01 3.287893e+01 3.570119e+01 4.783311e+01 1.236334e-02 3.529548e-01 1.083147e+00 1.217650e+00 1.395429e+00 1.045704e+00 1.426332e+00 1.701811e+00 1.779284e+00 2.171419e+00 1.912033e+00 2.241392e+00 2.452209e+00 1.459135e-04 7.494180e-02 1.364594e-01 2.797814e-01 2.207611e-01 3.483105e-01 2.785588e-01 3.277872e-01 3.795908e-01 3.344358e-01 4.588223e-01 4.482979e-01 3.597810e-01 3.038360e-05
<GCONST> 7.739302e+01
<MIXTURE> 4 3.084670e-01
<MEAN> 39
 1.063479e+01 -1.409609e+00 -7.031303e+00 4.902123e+00 5.600983e+00 -6.685580e+00 -7.553341e+00 4.451108e+00 9.459857e+00 6.356016e+00 -3.112652e+00 -4.382728e+00 7.807475e-01 -1.507461e+00 -8.718925e-01 2.453317e+00 1.457511e+00 -1.783265e+00 -3.226010e+00 1.621025e+00 3.603593e+00 2.883887e-01 -2.763471e+00 -8.367941e-01 1.129894e+00 -4.236938e-03 -3.324918e-01 2.785811e-01 9.681222e-01 -6.999093e-01 -1.011747e+00 7.629791e-01 1.299724e+00 -6.101188e-01 -1.400786e+00 -3.968257e-01 9.201337e-01 6.148443e-01 -1.975904e-03
<VARIANCE> 39
 1.061606e+01 2.887402e+01 3.245142e+01 1.608784e+01 1.829460e+01 2.735879e+01 3.278961e+01 2.646883e+01 2.601696e+01 2.731630e+01 2.417198e+01 2.883058e+01 1.185472e-02 5.069792e-01 1.222225e+00 2.428108e+00 2.198604e+00 2.613906e+00 3.159761e+00 3.038292e+00 2.591850e+00 2.613438e+00 2.953043e+00 2.996628e+00 2.416589e+00 3.333294e-04 1.323993e-01 3.869802e-01 4.755888e-01 4.376509e-01 3.771465e-01 5.364035e-01 4.670863e-01 5.327989e-01 3.773554e-01 4.908252e-01 4.600200e-01 4.242687e-01 4.716166e-05
<GCONST> 8.589646e+01
<STATE> 9
<NUMMIXES> 4
<MIXTURE> 1 4.071800e-01
<MEAN> 39
 1.194723e+01 4.627388e+00 -5.645831e+00 -2.949168e+00 2.415676e+00 3.923723e+00 5.360810e-01 4.564208e-01 5.191180e-01 4.175760e+00 4.182992e+00 8.606815e-01 6.868541e-01 -3.335788e-01 4.108817e-02 9.313911e-01 4.142627e-02 4.183849e-01 2.044579e-01 2.192452e-01 3.195064e-01 1.058475e-01 -2.114423e-01 -3.418832e-01 -2.949515e-02 -2.252834e-02 -2.445293e-01 -8.913134e-02 2.427547e-01 1.758105e-01 8.804139e-02 -1.326801e-01 -8.338368e-02 -1.452250e-01 -4.957447e-02 -2.539117e-01 -3.117673e-01 -1.320335e-01 -2.390601e-03
<VARIANCE> 39
 2.140766e+01 2.509550e+01 2.816361e+01 2.135306e+01 2.279647e+01 1.776349e+01 2.161268e+01 2.051762e+01 2.393139e+01 2.531969e+01 2.061783e+01 2.193947e+01 1.538904e-02 3.174450e-01 6.070998e-01 1.384948e+00 9.521485e-01 1.346123e+00 1.214754e+00 1.231207e+00 1.567827e+00 1.262683e+00 1.862136e+00 1.277390e+00 1.418572e+00 1.501318e-04 6.044562e-02 1.279364e-01 2.455298e-01 1.824540e-01 1.859213e-01 1.916922e-01 2.898084e-01 2.484548e-01 3.337891e-01 3.115153e-01 2.690917e-01 2.606885e-01 3.565456e-05
<GCONST> 6.813783e+01
<MIXTURE> 2 2.064315e-01
<MEAN> 39
 8.533756e+00 -2.801669e+00 -2.201369e+00 5.903210e+00 1.717011e+00 -1.289359e+01 -1.269631e+00 1.041340e+01 7.317429e+00 -1.128724e+00 -1.988302e+00 -9.976098e-02 8.058879e-01 -1.696561e+00 -4.429390e-01 4.416889e+00 -4.456870e-01 -3.309865e+00 -1.326015e+00 3.459997e+00 9.116436e-01 -2.055939e+00 -1.675481e+00 1.349859e+00 1.321562e+00 -5.692286e-03 -1.596804e-01 5.687594e-01 6.101819e-01 -9.042242e-01 -2.737980e-01 1.873011e+00 4.633347e-02 -1.860707e+00 -7.200155e-01 8.592883e-01 4.349778e-01 -2.556052e-01 -6.279992e-03
<VARIANCE> 39
 1.292389e+01 2.315411e+01 2.970960e+01 2.141549e+01 2.538422e+01 3.177481e+01 4.684593e+01 2.908168e+01 3.604421e+01 3.316711e+01 3.837583e+01 3.145025e+01 7.233283e-03 1.036259e+00 2.716936e+00 3.559294e+00 3.321555e+00 2.305481e+00 3.517580e+00 3.941048e+00 3.691228e+00 3.037305e+00 4.105259e+00 3.504129e+00 2.941624e+00 2.755020e-04 2.030214e-01 4.016366e-01 7.221876e-01 6.671854e-01 6.440194e-01 6.594439e-01 7.145578e-01 5.961984e-01 6.329532e-01 6.283178e-01 7.012460e-01 5.051056e-01 5.349392e-05
<GCONST> 9.518935e+01
<MIXTURE> 3 2.582496e-01
<MEAN> 39
 8.860811e+00 -3.805154e+00 -1.430621e+00 7.423368e+00 -2.054149e+00 -1.099077e+01 -4.903677e-01 1.013999e+01 2.183396e+00 -1.761876e+00 -2.228378e+00 5.928499e-01 7.988893e-01 -1.814838e+00 4.568065e-01 3.203745e+00 -3.462443e-01 -3.806480e+00 -2.364060e-01 3.154781e+00 1.927390e-01 -1.853035e+00 -6.820174e-01 1.367123e+00 4.996598e-01 -1.826411e-03 -2.366080e-01 8.266211e-01 3.349588e-01 -1.193666e+00 3.362414e-01 1.487481e+00 -2.238272e-01 -1.630149e+00 5.670619e-02 7.819917e-01 2.200091e-01 -4.997407e-01 -3.205274e-03
<VARIANCE> 39
 1.170163e+01 2.840968e+01 2.100504e+01 1.451901e+01 2.185990e+01 2.776375e+01 4.280569e+01 2.970381e+01 2.477740e+01 3.339515e+01 3.608871e+01 3.830176e+01 9.922918e-03 6.168089e-01 1.099048e+00 2.357860e+00 2.207891e+00 1.677377e+00 3.341043e+00 2.423786e+00 2.738963e+00 2.165803e+00 2.870377e+00 2.371882e+00 2.493640e+00 1.189145e-04 1.226172e-01 2.281107e-01 2.885676e-01 3.968423e-01 3.982755e-01 4.780204e-01 6.625021e-01 4.587855e-01 5.050911e-01 5.100281e-01 4.015322e-01 5.164282e-01 3.028390e-05
<GCONST> 8.361440e+01
<MIXTURE> 4 1.281390e-01
<MEAN> 39
